{"learner":{"attributes":{"best_iteration":"183","best_score":"0.9745765386757209","scikit_learn":"{\"_estimator_type\": \"classifier\"}"},"feature_names":["Time","V1","V2","V3","V4","V5","V6","V7","V8","V9","V10","V11","V12","V13","V14","V15","V16","V17","V18","V19","V20","V21","V22","V23","V24","V25","V26","V27","V28","Amount"],"feature_types":["float","float","float","float","float","float","float","float","float","float","float","float","float","float","float","float","float","float","float","float","float","float","float","float","float","float","float","float","float","float"],"gradient_booster":{"model":{"cats":{"enc":[],"feature_segments":[],"sorted_idx":[]},"gbtree_model_param":{"num_parallel_tree":"1","num_trees":"984"},"iteration_indptr":[0,1,2,3,4,5,6,7,8,9,10,11,12,13,14,15,16,17,18,19,20,21,22,23,24,25,26,27,28,29,30,31,32,33,34,35,36,37,38,39,40,41,42,43,44,45,46,47,48,49,50,51,52,53,54,55,56,57,58,59,60,61,62,63,64,65,66,67,68,69,70,71,72,73,74,75,76,77,78,79,80,81,82,83,84,85,86,87,88,89,90,91,92,93,94,95,96,97,98,99,100,101,102,103,104,105,106,107,108,109,110,111,112,113,114,115,116,117,118,119,120,121,122,123,124,125,126,127,128,129,130,131,132,133,134,135,136,137,138,139,140,141,142,143,144,145,146,147,148,149,150,151,152,153,154,155,156,157,158,159,160,161,162,163,164,165,166,167,168,169,170,171,172,173,174,175,176,177,178,179,180,181,182,183,184,185,186,187,188,189,190,191,192,193,194,195,196,197,198,199,200,201,202,203,204,205,206,207,208,209,210,211,212,213,214,215,216,217,218,219,220,221,222,223,224,225,226,227,228,229,230,231,232,233,234,235,236,237,238,239,240,241,242,243,244,245,246,247,248,249,250,251,252,253,254,255,256,257,258,259,260,261,262,263,264,265,266,267,268,269,270,271,272,273,274,275,276,277,278,279,280,281,282,283,284,285,286,287,288,289,290,291,292,293,294,295,296,297,298,299,300,301,302,303,304,305,306,307,308,309,310,311,312,313,314,315,316,317,318,319,320,321,322,323,324,325,326,327,328,329,330,331,332,333,334,335,336,337,338,339,340,341,342,343,344,345,346,347,348,349,350,351,352,353,354,355,356,357,358,359,360,361,362,363,364,365,366,367,368,369,370,371,372,373,374,375,376,377,378,379,380,381,382,383,384,385,386,387,388,389,390,391,392,393,394,395,396,397,398,399,400,401,402,403,404,405,406,407,408,409,410,411,412,413,414,415,416,417,418,419,420,421,422,423,424,425,426,427,428,429,430,431,432,433,434,435,436,437,438,439,440,441,442,443,444,445,446,447,448,449,450,451,452,453,454,455,456,457,458,459,460,461,462,463,464,465,466,467,468,469,470,471,472,473,474,475,476,477,478,479,480,481,482,483,484,485,486,487,488,489,490,491,492,493,494,495,496,497,498,499,500,501,502,503,504,505,506,507,508,509,510,511,512,513,514,515,516,517,518,519,520,521,522,523,524,525,526,527,528,529,530,531,532,533,534,535,536,537,538,539,540,541,542,543,544,545,546,547,548,549,550,551,552,553,554,555,556,557,558,559,560,561,562,563,564,565,566,567,568,569,570,571,572,573,574,575,576,577,578,579,580,581,582,583,584,585,586,587,588,589,590,591,592,593,594,595,596,597,598,599,600,601,602,603,604,605,606,607,608,609,610,611,612,613,614,615,616,617,618,619,620,621,622,623,624,625,626,627,628,629,630,631,632,633,634,635,636,637,638,639,640,641,642,643,644,645,646,647,648,649,650,651,652,653,654,655,656,657,658,659,660,661,662,663,664,665,666,667,668,669,670,671,672,673,674,675,676,677,678,679,680,681,682,683,684,685,686,687,688,689,690,691,692,693,694,695,696,697,698,699,700,701,702,703,704,705,706,707,708,709,710,711,712,713,714,715,716,717,718,719,720,721,722,723,724,725,726,727,728,729,730,731,732,733,734,735,736,737,738,739,740,741,742,743,744,745,746,747,748,749,750,751,752,753,754,755,756,757,758,759,760,761,762,763,764,765,766,767,768,769,770,771,772,773,774,775,776,777,778,779,780,781,782,783,784,785,786,787,788,789,790,791,792,793,794,795,796,797,798,799,800,801,802,803,804,805,806,807,808,809,810,811,812,813,814,815,816,817,818,819,820,821,822,823,824,825,826,827,828,829,830,831,832,833,834,835,836,837,838,839,840,841,842,843,844,845,846,847,848,849,850,851,852,853,854,855,856,857,858,859,860,861,862,863,864,865,866,867,868,869,870,871,872,873,874,875,876,877,878,879,880,881,882,883,884,885,886,887,888,889,890,891,892,893,894,895,896,897,898,899,900,901,902,903,904,905,906,907,908,909,910,911,912,913,914,915,916,917,918,919,920,921,922,923,924,925,926,927,928,929,930,931,932,933,934,935,936,937,938,939,940,941,942,943,944,945,946,947,948,949,950,951,952,953,954,955,956,957,958,959,960,961,962,963,964,965,966,967,968,969,970,971,972,973,974,975,976,977,978,979,980,981,982,983,984],"tree_info":[0,0,0,0,0,0,0,0,0,0,0,0,0,0,0,0,0,0,0,0,0,0,0,0,0,0,0,0,0,0,0,0,0,0,0,0,0,0,0,0,0,0,0,0,0,0,0,0,0,0,0,0,0,0,0,0,0,0,0,0,0,0,0,0,0,0,0,0,0,0,0,0,0,0,0,0,0,0,0,0,0,0,0,0,0,0,0,0,0,0,0,0,0,0,0,0,0,0,0,0,0,0,0,0,0,0,0,0,0,0,0,0,0,0,0,0,0,0,0,0,0,0,0,0,0,0,0,0,0,0,0,0,0,0,0,0,0,0,0,0,0,0,0,0,0,0,0,0,0,0,0,0,0,0,0,0,0,0,0,0,0,0,0,0,0,0,0,0,0,0,0,0,0,0,0,0,0,0,0,0,0,0,0,0,0,0,0,0,0,0,0,0,0,0,0,0,0,0,0,0,0,0,0,0,0,0,0,0,0,0,0,0,0,0,0,0,0,0,0,0,0,0,0,0,0,0,0,0,0,0,0,0,0,0,0,0,0,0,0,0,0,0,0,0,0,0,0,0,0,0,0,0,0,0,0,0,0,0,0,0,0,0,0,0,0,0,0,0,0,0,0,0,0,0,0,0,0,0,0,0,0,0,0,0,0,0,0,0,0,0,0,0,0,0,0,0,0,0,0,0,0,0,0,0,0,0,0,0,0,0,0,0,0,0,0,0,0,0,0,0,0,0,0,0,0,0,0,0,0,0,0,0,0,0,0,0,0,0,0,0,0,0,0,0,0,0,0,0,0,0,0,0,0,0,0,0,0,0,0,0,0,0,0,0,0,0,0,0,0,0,0,0,0,0,0,0,0,0,0,0,0,0,0,0,0,0,0,0,0,0,0,0,0,0,0,0,0,0,0,0,0,0,0,0,0,0,0,0,0,0,0,0,0,0,0,0,0,0,0,0,0,0,0,0,0,0,0,0,0,0,0,0,0,0,0,0,0,0,0,0,0,0,0,0,0,0,0,0,0,0,0,0,0,0,0,0,0,0,0,0,0,0,0,0,0,0,0,0,0,0,0,0,0,0,0,0,0,0,0,0,0,0,0,0,0,0,0,0,0,0,0,0,0,0,0,0,0,0,0,0,0,0,0,0,0,0,0,0,0,0,0,0,0,0,0,0,0,0,0,0,0,0,0,0,0,0,0,0,0,0,0,0,0,0,0,0,0,0,0,0,0,0,0,0,0,0,0,0,0,0,0,0,0,0,0,0,0,0,0,0,0,0,0,0,0,0,0,0,0,0,0,0,0,0,0,0,0,0,0,0,0,0,0,0,0,0,0,0,0,0,0,0,0,0,0,0,0,0,0,0,0,0,0,0,0,0,0,0,0,0,0,0,0,0,0,0,0,0,0,0,0,0,0,0,0,0,0,0,0,0,0,0,0,0,0,0,0,0,0,0,0,0,0,0,0,0,0,0,0,0,0,0,0,0,0,0,0,0,0,0,0,0,0,0,0,0,0,0,0,0,0,0,0,0,0,0,0,0,0,0,0,0,0,0,0,0,0,0,0,0,0,0,0,0,0,0,0,0,0,0,0,0,0,0,0,0,0,0,0,0,0,0,0,0,0,0,0,0,0,0,0,0,0,0,0,0,0,0,0,0,0,0,0,0,0,0,0,0,0,0,0,0,0,0,0,0,0,0,0,0,0,0,0,0,0,0,0,0,0,0,0,0,0,0,0,0,0,0,0,0,0,0,0,0,0,0,0,0,0,0,0,0,0,0,0,0,0,0,0,0,0,0,0,0,0,0,0,0,0,0,0,0,0,0,0,0,0,0,0,0,0,0,0,0,0,0,0,0,0,0,0,0,0,0,0,0,0,0,0,0,0,0,0,0,0,0,0,0,0,0,0,0,0,0,0,0,0,0,0,0,0,0,0,0,0,0,0,0,0,0,0,0,0,0,0,0,0,0,0,0,0,0,0,0,0,0,0,0,0,0,0,0,0,0,0,0,0,0,0,0,0,0,0,0,0,0,0,0,0,0,0,0,0,0,0,0,0,0,0,0,0,0,0,0,0,0,0,0,0,0,0,0,0,0,0,0,0,0,0,0,0,0,0,0,0,0,0,0,0,0,0,0,0,0,0,0,0,0,0,0,0,0,0,0,0,0,0,0,0,0,0,0,0,0,0,0,0,0,0,0,0,0,0,0,0,0,0,0,0,0,0,0,0,0],"trees":[{"base_weights":[-1.3860675E-2,1.8648043E0,-1.536497E0,1.9831954E0,7.970297E-1,6.5522027E-1,-1.6286864E0,1.9914333E0,1.416537E0,1.4411126E0,-3.5676235E-1,1.2631093E0,-6.0025103E-2,-7.2074693E-1,-1.7832136E0,1.9952891E0,1.2403723E0,-5.998561E-2,1.9349908E0,1.6045084E0,-6.0005642E-2,-6.002921E-2,1.180359E0,1.5699139E0,-6.0010355E-2,1.1782969E-1,-6.0032766E-2,-1.8756028E0,-6.2919545E-1,1.9966347E0,5.09142E-2,-5.99384E-2,5.9943717E-2,5.4965407E-2,5.964398E-2,1.7359972E0,-5.999576E-2,-5.9993867E-2,1.5772192E0,1.7082229E0,-5.9974477E-2,7.1437097E-1,-6.0030367E-2,1.3342278E-1,-1.9055797E0,7.84155E-1,-1.1828223E0,5.4965407E-2,5.992057E-2,1.902452E0,1.1913253E0,1.7762309E0,-5.99391E-2,1.8081671E0,-5.994619E-2,1.2572566E0,-6.974344E-1,1.5224913E0,-6.0018823E-2,1.1096123E-1,-1.9208997E0,-6.0018286E-2,1.704999E0,-1.6681242E0,1.0160875E0,1.9781079E0,1.6916156E0,1.8010559E0,-5.999686E-2,5.8656637E-2,3.973155E-2,5.9410624E-2,1.5047429E0,1.4617294E0,-6.001023E-2,1.7760746E0,-6.00284E-2,1.1604997E0,5.932368E-2,5.3272862E-2,-6.0007174E-2,-1.9364394E0,4.908909E-2,1.908946E0,-5.993473E-2,-6.003192E-2,5.1092144E-2,5.9231933E-2,-5.999897E-2,5.4965407E-2,5.9911333E-2,5.9851073E-2,3.613142E-2,5.9129365E-2,4.5026142E-2,5.472448E-2,-5.9955753E-2,4.6607427E-2,-5.9976336E-2,5.973632E-2,4.7471285E-2,-5.994794E-2,5.932368E-2,-4.1592967E-2,-5.9009627E-2,-6.0010355E-2,5.9529644E-2,5.975114E-2,5.0383773E-2],"categories":[],"categories_nodes":[],"categories_segments":[],"categories_sizes":[],"default_left":[0,0,0,0,0,0,0,0,0,0,0,0,0,0,0,0,0,0,0,0,0,0,0,0,0,0,0,0,0,0,0,0,0,0,0,0,0,0,0,0,0,0,0,0,0,0,0,0,0,0,0,0,0,0,0,0,0,0,0,0,0,0,0,0,0,0,0,0,0,0,0,0,0,0,0,0,0,0,0,0,0,0,0,0,0,0,0,0,0,0,0,0,0,0,0,0,0,0,0,0,0,0,0,0,0,0,0,0,0],"id":0,"left_children":[1,3,5,7,9,11,13,15,17,19,21,23,-1,25,27,29,31,-1,33,35,-1,-1,37,39,-1,41,-1,43,45,47,-1,-1,-1,-1,-1,49,-1,-1,51,53,-1,55,-1,57,59,61,63,-1,-1,65,67,69,-1,71,-1,73,75,77,-1,79,81,-1,83,85,87,89,91,93,-1,-1,-1,-1,95,97,-1,99,-1,101,-1,-1,-1,103,105,107,-1,-1,-1,-1,-1,-1,-1,-1,-1,-1,-1,-1,-1,-1,-1,-1,-1,-1,-1,-1,-1,-1,-1,-1,-1],"loss_changes":[2.5095011E5,4.9645938E3,9.790719E3,1.64875E2,2.9130647E3,3.158187E3,6.5239375E3,1.00796875E2,8.9773E2,1.4146948E3,3.5493896E3,1.5938457E3,0E0,7.2613633E3,4.236625E3,1.371875E1,4.3730646E2,0E0,2.2080078E0,1.1384004E3,0E0,0E0,9.1623627E2,7.183948E2,0E0,5.16548E3,0E0,2.21575E3,2.3048545E3,3.859375E0,0E0,0E0,0E0,0E0,0E0,2.0995703E2,0E0,0E0,4.593534E2,5.190635E2,0E0,2.4441597E3,0E0,1.603716E3,1.1198906E3,2.126248E3,2.2587021E3,0E0,0E0,2.8127441E1,1.0558186E3,4.930359E1,0E0,7.1100586E1,0E0,1.5343196E3,2.855899E3,5.384607E1,0E0,9.6103143E2,1.1013906E3,0E0,4.7075085E2,1.9462944E3,1.1063275E3,3.4111328E0,6.9208984E1,2.3075928E1,0E0,0E0,0E0,0E0,5.529867E2,6.891157E2,0E0,1.2569397E1,0E0,4.7149084E2,0E0,0E0,0E0,5.9959375E2,1.1171771E3,1.1036621E1,0E0,0E0,0E0,0E0,0E0,0E0,0E0,0E0,0E0,0E0,0E0,0E0,0E0,0E0,0E0,0E0,0E0,0E0,0E0,0E0,0E0,0E0,0E0,0E0,0E0],"parents":[2147483647,0,0,1,1,2,2,3,3,4,4,5,5,6,6,7,7,8,8,9,9,10,10,11,11,13,13,14,14,15,15,16,16,18,18,19,19,22,22,23,23,25,25,27,27,28,28,29,29,35,35,38,38,39,39,41,41,43,43,44,44,45,45,46,46,49,49,50,50,51,51,53,53,55,55,56,56,57,57,59,59,60,60,62,62,63,63,64,64,65,65,66,66,67,67,72,72,73,73,75,75,77,77,81,81,82,82,83,83],"right_children":[2,4,6,8,10,12,14,16,18,20,22,24,-1,26,28,30,32,-1,34,36,-1,-1,38,40,-1,42,-1,44,46,48,-1,-1,-1,-1,-1,50,-1,-1,52,54,-1,56,-1,58,60,62,64,-1,-1,66,68,70,-1,72,-1,74,76,78,-1,80,82,-1,84,86,88,90,92,94,-1,-1,-1,-1,96,98,-1,100,-1,102,-1,-1,-1,104,106,108,-1,-1,-1,-1,-1,-1,-1,-1,-1,-1,-1,-1,-1,-1,-1,-1,-1,-1,-1,-1,-1,-1,-1,-1,-1],"split_conditions":[-1.7862202E0,-1.6038146E0,-3.2236552E0,-2.6386878E0,-1.1515697E-1,-8.002522E-2,-8.08243E-1,1.0307524E0,1.8345E2,1.9194927E0,4.215646E-1,1.0984255E0,-6.0025103E-2,9.5626E4,1.2803149E0,-1.7706742E0,1.449377E0,-5.998561E-2,-4.179897E-1,5.765613E-1,-6.0005642E-2,-6.002921E-2,4.8656106E-1,2.4385177E-1,-6.0010355E-2,1.2330933E0,-6.0032766E-2,-1.4029363E0,-1.2075584E0,6.3543886E-1,5.09142E-2,-5.99384E-2,5.9943717E-2,5.4965407E-2,5.964398E-2,-1.7719245E0,-5.999576E-2,-5.9993867E-2,2.030278E-2,2.522098E0,-5.9974477E-2,-8.23776E-2,-6.0030367E-2,-4.2590785E-1,-2.4487484E0,7.118091E-1,1.7830314E-1,5.4965407E-2,5.992057E-2,-9.330974E-1,-9.694158E-1,-5.2255696E-1,-5.99391E-2,-1.4431089E0,-5.994619E-2,2.4874774E-1,-1.5215603E0,-1.7876961E0,-6.0018823E-2,1.9334E4,1.4088022E0,-6.0018286E-2,-3.0117565E-1,2.007892E0,-1.4724478E0,1.4315267E0,-2.727102E0,-6.849433E-1,-5.999686E-2,5.8656637E-2,3.973155E-2,5.9410624E-2,-2.086726E-1,8.985307E-1,-6.001023E-2,-2.4516253E0,-6.00284E-2,3.839517E0,5.932368E-2,5.3272862E-2,-6.0007174E-2,-6.031734E-1,1.704801E0,-1.1330087E0,-5.993473E-2,-6.003192E-2,5.1092144E-2,5.9231933E-2,-5.999897E-2,5.4965407E-2,5.9911333E-2,5.9851073E-2,3.613142E-2,5.9129365E-2,4.5026142E-2,5.472448E-2,-5.9955753E-2,4.6607427E-2,-5.9976336E-2,5.973632E-2,4.7471285E-2,-5.994794E-2,5.932368E-2,-4.1592967E-2,-5.9009627E-2,-6.0010355E-2,5.9529644E-2,5.975114E-2,5.0383773E-2],"split_indices":[14,10,3,14,20,10,14,7,29,1,19,14,0,0,7,10,25,0,1,10,0,0,11,13,0,3,0,20,13,11,0,0,0,0,0,3,0,0,27,5,0,13,0,14,19,11,1,0,0,9,13,15,0,13,0,8,19,1,0,0,26,0,26,15,19,11,7,7,0,0,0,0,20,9,0,3,0,10,0,0,0,8,10,3,0,0,0,0,0,0,0,0,0,0,0,0,0,0,0,0,0,0,0,0,0,0,0,0,0],"split_type":[0,0,0,0,0,0,0,0,0,0,0,0,0,0,0,0,0,0,0,0,0,0,0,0,0,0,0,0,0,0,0,0,0,0,0,0,0,0,0,0,0,0,0,0,0,0,0,0,0,0,0,0,0,0,0,0,0,0,0,0,0,0,0,0,0,0,0,0,0,0,0,0,0,0,0,0,0,0,0,0,0,0,0,0,0,0,0,0,0,0,0,0,0,0,0,0,0,0,0,0,0,0,0,0,0,0,0,0,0],"sum_hessian":[8.7728625E4,3.9272844E4,4.845578E4,3.5352984E4,3.919861E3,1.9558947E3,4.6499887E4,3.484627E4,5.0671494E2,2.5155747E3,1.4042864E3,1.5916448E3,3.6424988E2,6.763073E3,3.9736812E4,3.4668195E4,1.7807164E2,6.674998E1,4.3996497E2,2.4015747E3,1.1399997E2,6.784998E2,7.2578656E2,1.4548949E3,1.3674995E2,4.0865742E3,2.6764993E3,3.6791312E4,2.945501E3,3.4512125E4,1.5607166E2,3.374999E1,1.4432166E2,1.5057166E2,2.893933E2,2.3170747E3,8.449998E1,8.049998E1,6.452866E2,1.4006449E3,5.4249985E1,3.1888245E3,8.9774976E2,5.4089325E2,3.6250418E4,8.2903656E2,2.1164644E3,1.5057166E2,3.4361555E4,1.7746099E3,5.424649E2,6.112866E2,3.399999E1,1.3638949E3,3.674999E1,2.3031814E3,8.856431E2,3.276433E2,2.1324994E2,2.7332162E2,3.5977098E4,2.0599994E2,6.230366E2,1.7338212E3,3.8264328E2,1.3056449E3,4.6896497E2,4.5546497E2,8.699998E1,4.3771497E2,1.7357164E2,8.6992993E2,4.9396494E2,2.1671814E3,1.3599995E2,3.056433E2,5.799998E2,1.8257164E2,1.4507166E2,1.5282166E2,1.2049996E2,3.5695527E4,2.8157162E2,5.905366E2,3.249999E1,1.5779995E3,1.5582166E2,2.903933E2,9.224997E1,1.5057166E2,1.1550732E3,2.888933E2,1.8007164E2,2.906433E2,1.6482166E2,4.5271497E2,4.124999E1,2.1111814E3,5.5999985E1,1.4457166E2,1.6107166E2,3.749999E1,1.4507166E2,1.8783928E3,3.3817133E4,1.3674995E2,1.4482166E2,4.3371497E2,1.5682166E2],"tree_param":{"num_deleted":"0","num_feature":"30","num_nodes":"109","size_leaf_vector":"1"}},{"base_weights":[3.4221582E-2,1.8186426E0,-1.4904728E0,-9.8434716E-1,1.8587418E0,-1.702328E0,-1.3724269E-1,-5.84947E-2,4.5780744E-2,1.8747431E0,-5.83012E-2,-1.7519358E0,4.8732892E-1,7.2243744E-1,-1.326748E0,1.9369755E0,1.2529926E0,-1.3516529E0,-1.872908E0,-5.838439E-2,1.3683811E0,1.2356647E0,-7.8550065E-1,-5.8322757E-2,5.7840544E-1,1.939279E0,1.6646649E0,1.4411634E0,-5.8593154E-2,9.8840155E-2,-1.7208115E0,-1.89013E0,-3.2836658E-1,-5.846338E-2,1.8106923E0,1.420086E0,-5.8399305E-2,-5.8400013E-2,5.6610107E-2,1.6103692E0,-5.8316536E-2,5.8203775E-2,5.206559E-2,5.8237176E-2,4.272355E-2,-5.8694806E-2,1.5471258E0,-5.844074E-2,1.2954987E0,-1.8618697E0,-1.5375182E-1,-1.9076797E0,-6.2840056E-1,-5.834766E-2,5.2955024E-2,1.9463601E0,4.353067E-2,1.5704788E0,-5.8328975E-2,1.0845556E0,1.9417264E0,-5.8973197E-2,1.6018533E0,1.6516445E0,-5.893702E-2,-5.833563E-2,2.7578822E-1,-5.8282E-2,1.198413E0,-1.2949741E0,-1.9253342E0,4.9939398E-2,-5.834472E-2,5.6699943E-2,6.1797023E-2,1.6746178E0,-5.8353387E-2,5.8215886E-2,-5.8359742E-2,6.1764512E-2,5.483081E-2,4.931614E-2,-5.8555316E-2,5.3822763E-2,-5.8570415E-2,-5.832895E-2,5.6062452E-2,-5.856048E-2,5.0823014E-2,2.9936893E-2,-5.8413737E-2,-5.8341116E-2,-4.9868137E-2,5.2264284E-2,-5.8331195E-2],"categories":[],"categories_nodes":[],"categories_segments":[],"categories_sizes":[],"default_left":[0,0,0,0,0,0,0,0,0,0,0,0,0,0,0,0,0,0,0,0,0,0,0,0,0,0,0,0,0,0,0,0,0,0,0,0,0,0,0,0,0,0,0,0,0,0,0,0,0,0,0,0,0,0,0,0,0,0,0,0,0,0,0,0,0,0,0,0,0,0,0,0,0,0,0,0,0,0,0,0,0,0,0,0,0,0,0,0,0,0,0,0,0,0,0],"id":1,"left_children":[1,3,5,7,9,11,13,-1,-1,15,-1,17,19,21,23,25,27,29,31,-1,33,35,37,-1,39,41,43,45,-1,47,49,51,53,-1,55,57,-1,-1,-1,59,-1,-1,-1,-1,-1,-1,61,-1,63,65,67,69,71,-1,-1,73,-1,75,-1,77,79,-1,81,83,-1,-1,85,-1,87,89,91,-1,-1,-1,-1,93,-1,-1,-1,-1,-1,-1,-1,-1,-1,-1,-1,-1,-1,-1,-1,-1,-1,-1,-1],"loss_changes":[2.4456533E5,4.6553438E3,1.3896656E4,1.416074E3,2.4844688E3,4.5526484E3,6.7098354E3,0E0,0E0,1.5732188E3,0E0,1.9843984E3,1.9909385E3,2.947782E3,3.237645E3,2.3015625E1,2.2322378E3,5.093051E3,8.371328E2,0E0,1.0004608E3,1.6679058E3,3.0016392E3,0E0,1.753833E3,6.140625E0,2.050293E1,1.2583579E3,0E0,4.726685E3,1.6759277E3,6.891172E2,1.1749247E3,0E0,2.9202026E1,1.3592632E3,0E0,0E0,0E0,8.319519E1,0E0,0E0,0E0,0E0,0E0,0E0,6.51728E2,0E0,1.4140874E3,1.2289727E3,1.5148468E3,3.3192188E2,1.2893066E3,0E0,0E0,2.5845947E0,0E0,9.4150684E2,0E0,4.7989438E2,3.7128906E0,0E0,4.9847266E2,5.638154E2,0E0,0E0,9.160641E2,0E0,5.571496E2,1.2859243E3,1.5186719E2,0E0,0E0,0E0,0E0,6.104365E2,0E0,0E0,0E0,0E0,0E0,0E0,0E0,0E0,0E0,0E0,0E0,0E0,0E0,0E0,0E0,0E0,0E0,0E0,0E0],"parents":[2147483647,0,0,1,1,2,2,3,3,4,4,5,5,6,6,9,9,11,11,12,12,13,13,14,14,15,15,16,16,17,17,18,18,20,20,21,21,22,22,24,24,25,25,26,26,27,27,29,29,30,30,31,31,32,32,34,34,35,35,39,39,46,46,48,48,49,49,50,50,51,51,52,52,55,55,57,57,59,59,60,60,62,62,63,63,66,66,68,68,69,69,70,70,75,75],"right_children":[2,4,6,8,10,12,14,-1,-1,16,-1,18,20,22,24,26,28,30,32,-1,34,36,38,-1,40,42,44,46,-1,48,50,52,54,-1,56,58,-1,-1,-1,60,-1,-1,-1,-1,-1,-1,62,-1,64,66,68,70,72,-1,-1,74,-1,76,-1,78,80,-1,82,84,-1,-1,86,-1,88,90,92,-1,-1,-1,-1,94,-1,-1,-1,-1,-1,-1,-1,-1,-1,-1,-1,-1,-1,-1,-1,-1,-1,-1,-1],"split_conditions":[-1.7862202E0,-4.8692566E-1,1.6173303E0,1.66816E5,1.9949301E0,2.496678E0,1.3905992E-3,-5.84947E-2,4.5780744E-2,-1.4177446E0,-5.83012E-2,-7.995682E-1,-6.492294E-2,-2.32212E-1,1.1061008E0,-2.6386878E0,1.0892454E-1,-6.498678E-1,2.007892E0,-5.838439E-2,2.0522979E-1,1.2330933E0,2.1810586E0,-5.8322757E-2,4.370617E-2,1.240388E0,-2.7612941E0,-3.2234564E-1,-5.8593154E-2,2.8507084E-1,1.3160843E0,2.2131493E0,1.2803149E0,-5.846338E-2,-6.4440334E-1,1.1953737E0,-5.8399305E-2,-5.8400013E-2,5.6610107E-2,1.0633698E0,-5.8316536E-2,5.8203775E-2,5.206559E-2,5.8237176E-2,4.272355E-2,-5.8694806E-2,-1.0547684E0,-5.844074E-2,-8.853309E-2,1.8653494E0,7.118091E-1,-1.5215603E0,-1.0436897E0,-5.834766E-2,5.2955024E-2,-3.298873E-1,4.353067E-2,1.0429915E0,-5.8328975E-2,-2.7612941E0,1.122035E0,-5.8973197E-2,4.166313E-1,7.7449E4,-5.893702E-2,-5.833563E-2,7.7026314E-1,-5.8282E-2,1.5254878E-1,-1.3561451E0,1.5578718E0,4.9939398E-2,-5.834472E-2,5.6699943E-2,6.1797023E-2,1.43072E5,-5.8353387E-2,5.8215886E-2,-5.8359742E-2,6.1764512E-2,5.483081E-2,4.931614E-2,-5.8555316E-2,5.3822763E-2,-5.8570415E-2,-5.832895E-2,5.6062452E-2,-5.856048E-2,5.0823014E-2,2.9936893E-2,-5.8413737E-2,-5.8341116E-2,-4.9868137E-2,5.2264284E-2,-5.8331195E-2],"split_indices":[14,4,4,0,1,7,8,0,0,12,0,13,9,12,11,14,27,14,15,0,14,3,17,0,14,9,9,27,0,15,7,11,7,0,11,1,0,0,0,1,0,0,0,0,0,0,24,0,23,5,11,19,14,0,0,3,0,14,0,9,11,0,8,0,0,0,24,0,4,11,13,0,0,0,0,0,0,0,0,0,0,0,0,0,0,0,0,0,0,0,0,0,0,0,0],"split_type":[0,0,0,0,0,0,0,0,0,0,0,0,0,0,0,0,0,0,0,0,0,0,0,0,0,0,0,0,0,0,0,0,0,0,0,0,0,0,0,0,0,0,0,0,0,0,0,0,0,0,0,0,0,0,0,0,0,0,0,0,0,0,0,0,0,0,0,0,0,0,0,0,0,0,0,0,0,0,0,0,0,0,0,0,0,0,0,0,0,0,0,0,0,0,0],"sum_hessian":[8.989059E4,4.1417613E4,4.8472977E4,5.841403E2,4.0833473E4,4.19115E4,6.561479E3,4.2189404E2,1.6224626E2,4.066237E4,1.711018E2,4.098302E4,9.2848047E2,3.8088008E3,2.752678E3,3.696259E4,3.69978E3,9.511435E3,3.1471584E4,2.4678706E2,6.816934E2,2.841653E3,9.671478E2,2.079E3,6.73678E2,3.6652227E4,3.103627E2,3.4947004E3,2.050796E2,1.9296238E3,7.5818105E3,3.1124525E4,3.4705936E2,8.018134E1,6.015121E2,2.6860222E3,1.5563075E2,6.7422217E2,2.9292566E2,4.78092E2,1.9558598E2,3.6500047E4,1.5218082E2,1.4419281E2,1.6616989E2,1.0566421E2,3.3890361E3,7.118988E2,1.2177251E3,6.955687E3,6.261235E2,3.069752E4,4.2700616E2,1.9584126E2,1.5121811E2,4.3659186E2,1.6492023E2,2.5711184E3,1.1490392E2,1.8490529E2,2.9318674E2,5.1959026E1,3.3370771E3,1.0978203E3,1.1990477E2,6.6967656E3,2.5892148E2,2.6951636E2,3.566071E2,8.598555E2,2.9837662E4,1.5572981E2,2.7127634E2,2.9239526E2,1.441966E2,2.497175E3,7.394322E1,1.4418953E2,4.0715755E1,1.4420091E2,1.4898582E2,3.2981099E3,3.8967262E1,1.0561047E3,4.171549E1,1.0816355E2,1.5075792E2,4.845903E1,3.0814804E2,1.9040157E2,6.69454E2,2.7791023E4,2.0466387E3,2.4514624E3,4.5712784E1],"tree_param":{"num_deleted":"0","num_feature":"30","num_nodes":"95","size_leaf_vector":"1"}},{"base_weights":[-1.6118372E-2,1.7630056E0,-1.4589994E0,1.7976583E0,-5.739917E-2,-1.6863447E0,-3.097358E-1,1.8831872E0,9.704792E-1,-1.7372851E0,5.2479327E-1,5.237257E-1,-1.4110157E0,4.2904984E-2,1.8853E0,4.4717204E-2,1.7721063E0,-1.7892604E0,-5.590921E-1,-5.6759693E-2,1.3465472E0,1.1183884E0,-1.0201302E0,-1.7112586E0,1.4937564E0,1.886285E0,4.9833998E-2,1.1155735E0,-1.2137679E0,1.8396729E0,-5.8528166E-2,-1.1332276E0,-1.843844E0,-5.6968164E-2,5.3634876E-1,-5.6807846E-2,1.776077E0,1.4433117E0,-5.6728724E-2,1.0997249E0,-5.698452E-2,-5.6744646E-2,-4.6595943E-1,-5.708931E-2,5.61386E-2,5.661759E-2,4.9969833E-2,-5.788445E-2,1.3832017E0,-5.7665028E-2,5.5270165E-2,1.8757393E0,4.354661E-2,-5.6807958E-2,2.964067E-1,-1.85917E0,-4.4235018E-1,1.243911E0,-5.6953184E-2,4.33871E-2,5.696374E-2,-2.1058619E-1,1.6455456E0,1.8199655E0,-5.6750435E-2,4.8748787E-2,-5.674681E-2,-5.735525E-2,1.579758E0,1.7344142E0,1.9049423E0,-5.6804556E-2,1.3673962E0,-5.6749057E-2,-1.4675595E0,4.9596578E-2,-5.6727927E-2,1.6198193E0,-5.694892E-2,-5.7250045E-2,5.3898837E-2,1.7368569E0,6.214157E-1,6.009537E-2,4.942312E-2,-5.761995E-2,5.160127E-2,5.684386E-2,4.7587007E-2,5.9694674E-2,5.65098E-2,4.9356777E-2,-5.670749E-2,4.551563E-3,-5.6789875E-2,5.404907E-2,-5.680211E-2,5.6544118E-2,4.68366E-2,-5.7715207E-2,5.598296E-2],"categories":[],"categories_nodes":[],"categories_segments":[],"categories_sizes":[],"default_left":[0,0,0,0,0,0,0,0,0,0,0,0,0,0,0,0,0,0,0,0,0,0,0,0,0,0,0,0,0,0,0,0,0,0,0,0,0,0,0,0,0,0,0,0,0,0,0,0,0,0,0,0,0,0,0,0,0,0,0,0,0,0,0,0,0,0,0,0,0,0,0,0,0,0,0,0,0,0,0,0,0,0,0,0,0,0,0,0,0,0,0,0,0,0,0,0,0,0,0,0,0],"id":2,"left_children":[1,3,5,7,-1,9,11,13,15,17,19,21,23,-1,25,27,29,31,33,-1,35,37,39,41,43,45,-1,47,49,51,-1,53,55,-1,57,-1,59,61,-1,63,-1,-1,65,-1,-1,-1,-1,-1,67,-1,-1,69,-1,-1,71,73,75,77,-1,-1,-1,79,81,83,-1,-1,-1,-1,85,87,89,-1,91,-1,93,-1,-1,95,-1,-1,-1,97,99,-1,-1,-1,-1,-1,-1,-1,-1,-1,-1,-1,-1,-1,-1,-1,-1,-1,-1],"loss_changes":[2.243892E5,4.986953E3,1.2611008E4,2.743414E3,0E0,4.5387656E3,7.316609E3,3.3492188E1,2.6968713E3,2.4119453E3,1.8023618E3,4.1656865E3,2.9949756E3,0E0,7.5546875E0,2.272892E3,4.901172E2,1.3507188E3,2.4426912E3,0E0,9.427124E2,3.2031152E3,2.352127E3,6.9846484E2,4.127481E2,7.265625E0,0E0,7.4271985E2,1.6787823E3,2.663086E1,0E0,3.1500469E3,7.4797656E2,0E0,1.5776127E3,0E0,2.4056763E1,9.888877E2,0E0,7.9729834E2,0E0,0E0,1.1732734E3,0E0,0E0,0E0,0E0,0E0,5.426544E2,0E0,0E0,7.04541E0,0E0,0E0,2.359915E3,4.3784375E2,1.1439392E3,8.382407E2,0E0,0E0,0E0,1.0980586E3,2.4629443E2,9.248535E0,0E0,0E0,0E0,0E0,3.883534E2,6.9750366E0,2.416504E0,0E0,6.1174695E2,0E0,1.8170049E3,0E0,0E0,4.0499194E2,0E0,0E0,0E0,6.2690918E1,6.8365393E2,0E0,0E0,0E0,0E0,0E0,0E0,0E0,0E0,0E0,0E0,0E0,0E0,0E0,0E0,0E0,0E0,0E0,0E0],"parents":[2147483647,0,0,1,1,2,2,3,3,5,5,6,6,7,7,8,8,9,9,10,10,11,11,12,12,14,14,15,15,16,16,17,17,18,18,20,20,21,21,22,22,23,23,24,24,25,25,27,27,28,28,29,29,31,31,32,32,34,34,36,36,37,37,39,39,42,42,48,48,51,51,54,54,55,55,56,56,57,57,61,61,62,62,63,63,68,68,69,69,70,70,72,72,74,74,77,77,81,81,82,82],"right_children":[2,4,6,8,-1,10,12,14,16,18,20,22,24,-1,26,28,30,32,34,-1,36,38,40,42,44,46,-1,48,50,52,-1,54,56,-1,58,-1,60,62,-1,64,-1,-1,66,-1,-1,-1,-1,-1,68,-1,-1,70,-1,-1,72,74,76,78,-1,-1,-1,80,82,84,-1,-1,-1,-1,86,88,90,-1,92,-1,94,-1,-1,96,-1,-1,-1,98,100,-1,-1,-1,-1,-1,-1,-1,-1,-1,-1,-1,-1,-1,-1,-1,-1,-1,-1],"split_conditions":[-1.7862202E0,-1.738453E-1,1.3927276E0,-1.4177446E0,-5.739917E-2,2.496678E0,-2.32212E-1,3.5357824E-1,1.8899992E0,6.76582E-1,-6.492294E-2,2.7736637E-1,2.1810586E0,4.2904984E-2,1.2646915E0,1.6155715E-1,2.0834403E-1,-1.0688286E0,3.8176823E-1,-5.6759693E-2,2.0522979E-1,1.2775344E0,-2.9746177E0,1.2371633E0,1.4213088E0,-2.6386878E0,4.9833998E-2,-1.9854428E-2,-1.8978165E-1,-5.529905E-1,-5.8528166E-2,6.892912E-1,2.2131493E0,-5.6968164E-2,-6.9691464E-2,-5.6807846E-2,6.424255E-1,-1.1355876E0,-5.6728724E-2,-1.6207708E-1,-5.698452E-2,-5.6744646E-2,1.2612959E0,-5.708931E-2,5.61386E-2,5.661759E-2,4.9969833E-2,-5.788445E-2,-5.036517E-1,-5.7665028E-2,5.5270165E-2,-5.036517E-1,4.354661E-2,-5.6807958E-2,4.2445987E-2,6.6788614E-1,-1.0436897E0,7.3657686E-1,-5.6953184E-2,4.33871E-2,5.696374E-2,-2.4090235E-1,-4.499466E-1,-2.4487484E0,-5.6750435E-2,4.8748787E-2,-5.674681E-2,-5.735525E-2,-1.4371341E-1,7.7043E4,-3.6578467E-1,-5.6804556E-2,1.2190447E0,-5.6749057E-2,6.933354E-1,4.9596578E-2,-5.6727927E-2,-9.8772995E-2,-5.694892E-2,-5.7250045E-2,5.3898837E-2,-4.567974E-1,2.1281455E0,6.009537E-2,4.942312E-2,-5.761995E-2,5.160127E-2,5.684386E-2,4.7587007E-2,5.9694674E-2,5.65098E-2,4.9356777E-2,-5.670749E-2,4.551563E-3,-5.6789875E-2,5.404907E-2,-5.680211E-2,5.6544118E-2,4.68366E-2,-5.7715207E-2,5.598296E-2],"split_indices":[14,3,4,12,0,7,12,11,4,21,9,14,17,0,9,2,23,19,19,0,14,3,12,12,22,14,0,20,3,19,0,7,11,0,25,0,19,11,0,10,0,0,12,0,0,0,0,0,12,0,0,12,0,0,4,25,14,19,0,0,0,12,12,19,0,0,0,0,9,0,23,0,3,0,25,0,0,16,0,0,0,16,19,0,0,0,0,0,0,0,0,0,0,0,0,0,0,0,0,0,0],"split_type":[0,0,0,0,0,0,0,0,0,0,0,0,0,0,0,0,0,0,0,0,0,0,0,0,0,0,0,0,0,0,0,0,0,0,0,0,0,0,0,0,0,0,0,0,0,0,0,0,0,0,0,0,0,0,0,0,0,0,0,0,0,0,0,0,0,0,0,0,0,0,0,0,0,0,0,0,0,0,0,0,0,0,0,0,0,0,0,0,0,0,0,0,0,0,0,0,0,0,0,0,0],"sum_hessian":[8.741071E4,3.9144336E4,4.826638E4,3.8778836E4,3.654999E2,4.0295223E4,7.971155E3,3.514485E4,3.6339822E3,3.9387812E4,9.074103E2,4.537301E3,3.433854E3,1.6332567E2,3.4981527E4,1.6864434E3,1.9475387E3,3.7723633E4,1.6641818E3,2.3023064E2,6.771797E2,3.275614E3,1.2616869E3,3.1121936E3,3.2166028E2,3.4828105E4,1.5342377E2,9.111466E2,7.7529675E2,1.9128511E3,3.4687645E1,2.8977056E3,3.4825926E4,7.485644E2,9.1561743E2,7.924143E1,5.9793823E2,2.956432E3,3.1918204E2,3.6991666E2,8.917702E2,2.7186948E3,3.9349884E2,3.2153137E1,2.8950714E2,3.4675535E4,1.5256873E2,7.358358E1,8.3756305E2,6.294187E2,1.4587808E2,1.7500219E3,1.6282921E2,1.8916091E3,1.0060963E3,3.4449195E4,3.7673175E2,7.0946844E2,2.0614894E2,1.6232297E2,4.3561526E2,3.221164E2,2.6343154E3,2.9815176E2,7.176489E1,1.595218E2,2.3397704E2,4.7123375E1,7.9043964E2,3.0024716E2,1.4497748E3,3.3042426E2,6.7567206E2,3.1811725E4,2.63747E3,1.5397636E2,2.2275539E2,6.3368555E2,7.578293E1,1.745124E2,1.47604E2,2.418633E3,2.1568256E2,1.4432115E2,1.538306E2,3.0431038E1,7.600086E2,1.4388309E2,1.5636407E2,2.896364E2,1.1601383E3,6.2260004E2,5.307205E1,5.4877606E2,2.0886938E3,6.025296E2,3.115592E1,1.3125162E3,1.1061167E3,7.0824326E1,1.4485823E2],"tree_param":{"num_deleted":"0","num_feature":"30","num_nodes":"101","size_leaf_vector":"1"}},{"base_weights":[3.6771267E-3,1.6794734E0,-1.2555164E0,1.787507E0,-1.074323E0,-1.4570607E0,9.311616E-1,-5.540832E-2,1.8053528E0,1.1534203E0,-5.5380248E-2,-1.592363E0,-4.0693966E-1,1.3387338E0,-5.5693705E-2,1.8179765E0,-5.530907E-2,1.8005813E0,-5.53827E-2,-1.6850697E0,-5.0732386E-1,7.073197E-1,-1.2934783E0,4.1164166E-1,1.784168E0,1.1048434E0,1.828971E0,4.997115E-2,5.8347486E-2,1.116432E0,-1.7120119E0,6.80583E-1,-5.538053E-2,1.1962739E0,-5.538804E-2,-4.5140272E-1,-5.53746E-2,1.0646671E0,-5.6412257E-2,4.04083E-2,1.8151845E0,1.8070115E0,-5.55665E-2,1.8319393E0,3.6628876E-2,5.4761134E-2,-5.5387046E-2,-1.7652832E0,-6.917071E-1,1.390495E0,-8.540323E-1,1.3627007E0,-5.5426713E-2,-5.5387925E-2,5.2774E-1,-5.616324E-2,1.3916657E0,1.8354181E0,4.6039227E-2,5.671179E-2,4.944387E-2,4.148712E-2,1.8340325E0,-1.4501846E0,-1.8077772E0,-5.5422224E-2,8.468403E-2,1.5713352E0,-5.560566E-2,-5.5405367E-2,3.596773E-2,1.5209041E0,-5.586683E-2,1.1799126E0,-5.5316724E-2,1.6387131E0,-5.7313994E-2,1.8507779E0,4.8926562E-2,5.5075858E-2,4.3051116E-2,-5.534101E-2,-3.1092796E-3,-4.429402E-2,-5.5289164E-2,-2.8147677E-2,3.712689E-2,2.6173772E-2,5.183933E-2,-5.7551455E-2,4.8297755E-2,-5.5233337E-2,4.73204E-2,2.8131463E-2,5.5899635E-2,5.806729E-2,5.5095837E-2],"categories":[],"categories_nodes":[],"categories_segments":[],"categories_sizes":[],"default_left":[0,0,0,0,0,0,0,0,0,0,0,0,0,0,0,0,0,0,0,0,0,0,0,0,0,0,0,0,0,0,0,0,0,0,0,0,0,0,0,0,0,0,0,0,0,0,0,0,0,0,0,0,0,0,0,0,0,0,0,0,0,0,0,0,0,0,0,0,0,0,0,0,0,0,0,0,0,0,0,0,0,0,0,0,0,0,0,0,0,0,0,0,0,0,0,0,0],"id":3,"left_children":[1,3,5,7,9,11,13,-1,15,17,-1,19,21,23,-1,25,-1,27,-1,29,31,33,35,37,39,41,43,-1,-1,45,47,49,-1,51,-1,53,-1,55,-1,-1,57,59,-1,61,-1,-1,-1,63,65,67,69,71,-1,-1,73,-1,75,77,-1,-1,-1,-1,79,81,83,-1,85,87,-1,-1,-1,89,-1,91,-1,93,-1,95,-1,-1,-1,-1,-1,-1,-1,-1,-1,-1,-1,-1,-1,-1,-1,-1,-1,-1,-1],"loss_changes":[1.8494128E5,1.1186672E4,2.2054219E4,2.3469375E3,2.4403792E3,6.5100938E3,4.798263E3,0E0,1.6587188E3,7.091609E2,0E0,4.082836E3,5.1661987E3,1.5214912E3,0E0,2.8121094E2,0E0,5.6744995E0,0E0,2.822586E3,5.081007E3,2.893482E3,1.3546074E3,1.7899584E3,3.3618652E1,1.1316401E3,6.3648438E1,0E0,0E0,7.483897E2,2.0130469E3,1.8443955E3,0E0,9.8539233E2,0E0,1.5758047E3,0E0,8.939042E2,0E0,0E0,1.3037598E1,5.666382E0,0E0,3.2929688E1,0E0,0E0,0E0,4.711953E2,1.64914E3,6.79197E2,1.091532E3,9.410217E2,0E0,0E0,1.0486857E3,0E0,6.833684E2,6.645996E0,0E0,0E0,0E0,0E0,2.5390625E1,2.222249E3,3.6152344E2,0E0,1.2966483E3,1.1994653E2,0E0,0E0,0E0,5.3839087E2,0E0,6.386064E2,0E0,1.2259277E2,0E0,2.2436523E0,0E0,0E0,0E0,0E0,0E0,0E0,0E0,0E0,0E0,0E0,0E0,0E0,0E0,0E0,0E0,0E0,0E0,0E0,0E0],"parents":[2147483647,0,0,1,1,2,2,3,3,4,4,5,5,6,6,8,8,9,9,11,11,12,12,13,13,15,15,17,17,19,19,20,20,21,21,22,22,23,23,24,24,25,25,26,26,29,29,30,30,31,31,33,33,35,35,37,37,40,40,41,41,43,43,47,47,48,48,49,49,50,50,51,51,54,54,56,56,57,57,62,62,63,63,64,64,66,66,67,67,71,71,73,73,75,75,77,77],"right_children":[2,4,6,8,10,12,14,-1,16,18,-1,20,22,24,-1,26,-1,28,-1,30,32,34,36,38,40,42,44,-1,-1,46,48,50,-1,52,-1,54,-1,56,-1,-1,58,60,-1,62,-1,-1,-1,64,66,68,70,72,-1,-1,74,-1,76,78,-1,-1,-1,-1,80,82,84,-1,86,88,-1,-1,-1,90,-1,92,-1,94,-1,96,-1,-1,-1,-1,-1,-1,-1,-1,-1,-1,-1,-1,-1,-1,-1,-1,-1,-1,-1],"split_conditions":[-2.1931093E0,-1.738453E-1,1.6216303E0,-4.8692566E-1,-1.5215603E0,1.6173303E0,1.6170594E-1,-5.540832E-2,1.9613428E0,3.99E0,-5.5380248E-2,3.1999E2,-1.3477428E-1,1.8899992E0,-5.5693705E-2,6.3543886E-1,-5.530907E-2,1.8280158E0,-5.53827E-2,-1.6078086E0,-3.3329016E-1,-5.2925836E-2,9.5E0,-3.1848422E-1,1.6697152E-2,-2.261728E0,1.2628418E0,4.997115E-2,5.8347486E-2,-3.452607E0,1.1242766E0,-3.116736E-1,-5.538053E-2,1.2036215E0,-5.538804E-2,1.3784377E-1,-5.53746E-2,7.0065284E-1,-5.6412257E-2,4.04083E-2,-9.608075E-1,-1.6078086E0,-5.55665E-2,7.8639254E-2,3.6628876E-2,5.4761134E-2,-5.5387046E-2,1.29E0,6.613875E-2,7.4088323E-1,1.2720131E0,5.0506324E-1,-5.5426713E-2,-5.5387925E-2,2.2589631E-1,-5.616324E-2,7.118091E-1,1.29E1,4.6039227E-2,5.671179E-2,4.944387E-2,4.148712E-2,2.9789813E0,8.930762E-1,-8.7784344E-1,-5.5422224E-2,7.4198025E-1,4.2445987E-2,-5.560566E-2,-5.5405367E-2,3.596773E-2,-1.0272152E0,-5.586683E-2,-2.2487025E-1,-5.5316724E-2,1.09267324E-1,-5.7313994E-2,-5.0921327E-1,4.8926562E-2,5.5075858E-2,4.3051116E-2,-5.534101E-2,-3.1092796E-3,-4.429402E-2,-5.5289164E-2,-2.8147677E-2,3.712689E-2,2.6173772E-2,5.183933E-2,-5.7551455E-2,4.8297755E-2,-5.5233337E-2,4.73204E-2,2.8131463E-2,5.5899635E-2,5.806729E-2,5.5095837E-2],"split_indices":[12,3,17,4,19,4,8,0,1,29,0,29,8,4,0,11,0,17,0,17,26,12,29,12,28,3,1,0,0,3,17,8,0,3,0,11,0,2,0,0,3,17,0,4,0,0,0,29,16,6,11,1,0,0,8,0,11,29,0,0,0,0,17,4,19,0,4,4,0,0,0,5,0,17,0,21,0,23,0,0,0,0,0,0,0,0,0,0,0,0,0,0,0,0,0,0,0],"split_type":[0,0,0,0,0,0,0,0,0,0,0,0,0,0,0,0,0,0,0,0,0,0,0,0,0,0,0,0,0,0,0,0,0,0,0,0,0,0,0,0,0,0,0,0,0,0,0,0,0,0,0,0,0,0,0,0,0,0,0,0,0,0,0,0,0,0,0,0,0,0,0,0,0,0,0,0,0,0,0,0,0,0,0,0,0,0,0,0,0,0,0,0,0,0,0,0,0],"sum_hessian":[8.7643484E4,3.7601523E4,5.0041965E4,3.618209E4,1.4194335E3,4.5818895E4,4.223072E3,1.7676501E2,3.6005324E4,3.6518134E2,1.0542521E3,4.058917E4,5.229721E3,3.6844097E3,5.3866235E2,3.588122E4,1.2410391E2,3.0039166E2,6.478965E1,3.7394156E4,3.1950159E3,2.3172554E3,2.912466E3,1.1957572E3,2.4886526E3,5.448726E2,3.5336348E4,1.5563272E2,1.4475896E2,3.5617642E2,3.703798E4,1.692861E3,1.502155E3,1.9448829E3,3.7237244E2,1.1536938E3,1.7587722E3,9.306388E2,2.651184E2,1.6500752E2,2.323645E3,4.403341E2,1.0453853E2,3.5164566E4,1.717819E2,2.8742007E2,6.875635E1,3.52001E4,1.8378783E3,1.1574366E3,5.3542426E2,1.844084E3,1.0079883E2,4.758139E2,6.7787994E2,9.321554E1,8.374232E2,2.1670525E3,1.565924E2,2.8839697E2,1.5193712E2,1.6332623E2,3.500124E4,4.1831655E3,3.1016936E4,7.385027E2,1.0993756E3,1.0963477E3,6.1089005E1,3.6089853E2,1.7452574E2,1.7578773E3,8.62067E1,5.316963E2,1.4618364E2,7.79158E2,5.8265232E1,2.015279E3,1.5177354E2,3.48413E4,1.5993971E2,3.235264E3,9.4790173E2,2.9787468E3,2.8038188E4,5.8252026E2,5.168554E2,2.008022E2,8.955455E2,4.4324352E1,1.713553E3,6.1792934E1,4.6990335E2,1.8913852E2,5.900195E2,2.8889032E2,1.7263887E3],"tree_param":{"num_deleted":"0","num_feature":"30","num_nodes":"97","size_leaf_vector":"1"}},{"base_weights":[6.8890786E-4,1.6797528E0,-1.3638247E0,1.7084866E0,-5.4605473E-2,-1.5772113E0,-2.2402945E-1,1.7906295E0,9.8420125E-1,-1.6245024E0,5.020237E-1,5.447485E-1,-1.3049065E0,5.3818442E-2,1.4295651E0,1.3228476E-2,1.7516172E0,-1.6729031E0,-5.209928E-1,-5.403411E-2,1.2935853E0,1.0900338E0,-9.337217E-1,-1.6119655E0,1.4534777E0,-5.8708724E-2,5.403997E-2,-5.501733E-2,6.0982746E-1,1.8058068E0,3.3610687E-2,-1.1485331E0,-1.7504768E0,1.436739E0,-5.425126E-2,-5.4122824E-2,1.6844678E0,1.2234316E0,-5.482969E-2,1.0667918E0,-5.440321E-2,-5.3989276E-2,-3.443996E-1,3.495627E-2,5.399116E-2,-5.4865498E-2,8.960851E-1,1.6424304E0,1.8338492E0,-3.2498112E-1,-5.406131E-2,1.02944784E-1,-1.7658796E0,-5.423943E-2,1.7396988E0,4.0385738E-2,1.8112487E0,1.549858E0,4.4322756E-1,1.7440236E0,-5.404242E-2,4.7577422E-2,-5.396346E-2,1.1145287E0,-5.5147298E-2,5.3800788E-2,4.508858E-2,1.8039582E0,5.945885E-2,5.9910995E-1,-5.410547E-2,-5.4007497E-2,5.3997606E-2,-1.7813296E0,-9.4712305E-1,1.9286709E0,3.755296E-2,5.7505403E-2,5.274664E-2,1.7383349E0,1.1479882E0,1.7363751E0,-5.473029E-2,5.695744E-2,4.788587E-2,-5.5423226E-2,3.7844706E-2,5.3314786E-2,5.7326324E-2,-5.437034E-2,3.735797E-2,-5.3953227E-2,-4.5319438E-2,3.362065E-2,-5.4075267E-2,6.1048765E-2,5.1531725E-2,5.3578548E-2,4.0542755E-2,4.78836E-2,-5.6132726E-2,4.7061633E-2,5.388691E-2],"categories":[],"categories_nodes":[],"categories_segments":[],"categories_sizes":[],"default_left":[0,0,0,0,0,0,0,0,0,0,0,0,0,0,0,0,0,0,0,0,0,0,0,0,0,0,0,0,0,0,0,0,0,0,0,0,0,0,0,0,0,0,0,0,0,0,0,0,0,0,0,0,0,0,0,0,0,0,0,0,0,0,0,0,0,0,0,0,0,0,0,0,0,0,0,0,0,0,0,0,0,0,0,0,0,0,0,0,0,0,0,0,0,0,0,0,0,0,0,0,0,0,0],"id":4,"left_children":[1,3,5,7,-1,9,11,13,15,17,19,21,23,-1,25,27,29,31,33,-1,35,37,39,41,43,-1,-1,-1,45,47,-1,49,51,53,-1,-1,55,57,-1,59,-1,-1,61,-1,-1,-1,63,65,67,69,-1,71,73,-1,75,-1,77,79,81,83,-1,-1,-1,85,-1,-1,-1,87,-1,89,-1,-1,-1,91,93,95,-1,-1,-1,97,99,101,-1,-1,-1,-1,-1,-1,-1,-1,-1,-1,-1,-1,-1,-1,-1,-1,-1,-1,-1,-1,-1],"loss_changes":[1.996995E5,3.930039E3,1.1695211E4,2.3058906E3,0E0,3.982664E3,6.300994E3,4.1570312E1,2.941915E3,2.115125E3,1.6423156E3,3.5724119E3,2.6695537E3,0E0,3.996635E2,1.9208157E3,7.532666E1,1.5431172E3,4.1941763E3,0E0,8.1190955E2,1.2601025E3,2.1013652E3,6.746323E2,3.139856E1,0E0,0E0,0E0,9.1981665E2,9.14209E0,0E0,2.6313975E3,9.434922E2,6.4914844E2,0E0,0E0,2.5400146E1,7.8838477E2,0E0,7.0860254E2,0E0,0E0,1.0271481E3,0E0,0E0,0E0,7.043972E2,6.128723E0,7.479492E0,2.9557654E3,0E0,8.800609E2,4.1451562E2,0E0,5.5547607E1,0E0,2.2424316E0,1.6520703E2,2.67806E3,6.5787354E0,0E0,0E0,0E0,4.7543652E2,0E0,0E0,0E0,3.9501953E0,0E0,2.0745098E3,0E0,0E0,0E0,1.4885938E2,1.0740271E3,9.568848E0,0E0,0E0,0E0,2.7240723E1,9.431281E2,5.6848145E0,0E0,0E0,0E0,0E0,0E0,0E0,0E0,0E0,0E0,0E0,0E0,0E0,0E0,0E0,0E0,0E0,0E0,0E0,0E0,0E0,0E0],"parents":[2147483647,0,0,1,1,2,2,3,3,5,5,6,6,7,7,8,8,9,9,10,10,11,11,12,12,14,14,15,15,16,16,17,17,18,18,20,20,21,21,22,22,23,23,24,24,28,28,29,29,31,31,32,32,33,33,36,36,37,37,39,39,42,42,46,46,47,47,48,48,49,49,51,51,52,52,54,54,56,56,57,57,58,58,59,59,63,63,67,67,69,69,73,73,74,74,75,75,79,79,80,80,81,81],"right_children":[2,4,6,8,-1,10,12,14,16,18,20,22,24,-1,26,28,30,32,34,-1,36,38,40,42,44,-1,-1,-1,46,48,-1,50,52,54,-1,-1,56,58,-1,60,-1,-1,62,-1,-1,-1,64,66,68,70,-1,72,74,-1,76,-1,78,80,82,84,-1,-1,-1,86,-1,-1,-1,88,-1,90,-1,-1,-1,92,94,96,-1,-1,-1,98,100,102,-1,-1,-1,-1,-1,-1,-1,-1,-1,-1,-1,-1,-1,-1,-1,-1,-1,-1,-1,-1,-1],"split_conditions":[-1.7862202E0,5.765613E-1,1.4403151E0,-1.4177446E0,-5.4605473E-2,2.496678E0,-2.32212E-1,-2.6386878E0,1.8899992E0,6.76582E-1,-6.492294E-2,2.7736637E-1,2.1810586E0,5.3818442E-2,6.86294E-1,7.99E0,7.500815E-2,-8.08243E-1,-1.33873E0,-5.403411E-2,2.0522979E-1,1.09409E0,-2.9746177E0,1.2371633E0,2.5449E2,-5.8708724E-2,5.403997E-2,-5.501733E-2,9.015646E-1,-6.343433E-1,3.3610687E-2,-3.0034387E-1,-1.4029363E0,3.8176823E-1,-5.425126E-2,-5.4122824E-2,6.424255E-1,2.9431129E-1,-5.482969E-2,-1.6207708E-1,-5.440321E-2,-5.3989276E-2,1.2612959E0,3.495627E-2,5.399116E-2,-5.4865498E-2,1.18761264E-1,-2.0239606E0,3.4192425E-1,1.3253792E-1,-5.406131E-2,-1.8300798E0,7.5936776E-1,-5.423943E-2,-8.91873E-1,4.0385738E-2,6.936579E-1,-2.0580138E-1,-6.5666413E-1,-2.4487484E0,-5.404242E-2,4.7577422E-2,-5.396346E-2,-7.0080954E-1,-5.5147298E-2,5.3800788E-2,4.508858E-2,4.7764373E0,5.945885E-2,-2.81053E-1,-5.410547E-2,-5.4007497E-2,5.3997606E-2,1.5578718E0,-1.5005049E0,4.59E1,3.755296E-2,5.7505403E-2,5.274664E-2,1.1038959E0,5.6474973E-2,1.3727726E0,-5.473029E-2,5.695744E-2,4.788587E-2,-5.5423226E-2,3.7844706E-2,5.3314786E-2,5.7326324E-2,-5.437034E-2,3.735797E-2,-5.3953227E-2,-4.5319438E-2,3.362065E-2,-5.4075267E-2,6.1048765E-2,5.1531725E-2,5.3578548E-2,4.0542755E-2,4.78836E-2,-5.6132726E-2,4.7061633E-2,5.388691E-2],"split_indices":[14,10,4,12,0,7,12,14,4,21,9,14,17,0,23,29,23,14,13,0,14,1,12,12,29,0,0,0,17,12,0,13,20,19,0,0,19,6,0,10,0,0,12,0,0,0,8,10,8,9,0,1,23,0,16,0,19,20,21,19,0,0,0,12,0,0,0,4,0,4,0,0,0,13,13,29,0,0,0,10,2,22,0,0,0,0,0,0,0,0,0,0,0,0,0,0,0,0,0,0,0,0,0],"split_type":[0,0,0,0,0,0,0,0,0,0,0,0,0,0,0,0,0,0,0,0,0,0,0,0,0,0,0,0,0,0,0,0,0,0,0,0,0,0,0,0,0,0,0,0,0,0,0,0,0,0,0,0,0,0,0,0,0,0,0,0,0,0,0,0,0,0,0,0,0,0,0,0,0,0,0,0,0,0,0,0,0,0,0,0,0,0,0,0,0,0,0,0,0,0,0,0,0,0,0,0,0,0,0],"sum_hessian":[8.7162836E4,3.907732E4,4.808551E4,3.8759145E4,3.1817728E2,4.0502773E4,7.5827393E3,3.481106E4,3.9480854E3,3.9602055E4,9.0071747E2,4.431117E3,3.1516223E3,3.4493816E4,3.1724115E2,1.742916E3,2.2051692E3,3.7938043E4,1.6640153E3,2.3036606E2,6.703514E2,3.2371973E3,1.1939199E3,2.835951E3,3.1567123E2,3.135856E1,2.858826E2,4.2547733E2,1.3174387E3,2.0307432E3,1.7442612E2,4.889264E3,3.3048777E4,6.601358E2,1.00387946E3,7.5089005E1,5.952624E2,3.0956924E3,1.4150491E2,3.6465933E2,8.292606E2,2.4701897E3,3.6576135E2,1.7238145E2,1.4328978E2,1.3836803E2,1.1790707E3,2.9796915E2,1.732774E3,2.1632383E3,2.726026E3,2.723843E2,3.2776395E4,5.6350517E1,6.037853E2,1.6244688E2,4.3281552E2,2.1825083E3,9.131839E2,2.95021E2,6.9638336E1,1.5716322E2,2.0859811E2,1.0918735E3,8.719714E1,1.4280315E2,1.55166E2,1.4423903E3,2.9038382E2,1.3312394E3,8.319988E2,1.2838947E2,1.4399484E2,3.2169293E4,6.070994E2,4.351116E2,1.6867369E2,1.4405496E2,2.8876056E2,1.4855886E3,6.9691986E2,5.8155054E2,3.3163336E2,1.4391592E2,1.5110507E2,5.1584236E1,1.0402893E3,1.1540768E3,2.883134E2,2.813064E2,1.0499331E3,3.0256314E4,1.9129792E3,1.7764452E2,4.294549E2,2.8902002E2,1.4609157E2,1.3226199E3,1.6296867E2,6.068661E2,9.0053764E1,1.5338504E2,4.281655E2],"tree_param":{"num_deleted":"0","num_feature":"30","num_nodes":"103","size_leaf_vector":"1"}},{"base_weights":[-2.4754025E-2,1.6459773E0,-1.2402811E0,-1.1773827E0,1.717353E0,-1.4658891E0,6.22796E-1,-5.290677E-2,3.699396E-2,1.7308983E0,-5.3399675E-2,-1.7178235E0,-1.1095273E0,9.391584E-1,-5.2755967E-2,-5.345406E-2,1.7363517E0,-4.9123853E-1,-1.7369246E0,3.043925E-1,-1.2817069E0,1.5220326E0,-3.859141E-2,1.7395091E0,-5.4066632E-2,4.313919E-2,-5.2928817E-2,-1.3908491E0,-5.2739218E-2,1.0215378E0,-1.0453805E0,-4.530365E-1,-1.5121163E0,1.6142253E0,-5.321354E-2,1.042231E0,-5.2843645E-2,1.3102437E0,1.747958E0,-5.2765854E-2,1.2156337E0,1.2805518E0,-5.376344E-2,-5.333855E-2,5.0540965E-2,-5.297497E-2,1.6193472E-1,9.277205E-1,-1.5870441E0,1.6628599E0,-5.3304914E-2,1.7162578E0,-3.6468253E-1,-5.481457E-2,1.5971767E0,1.7502896E0,3.791537E-2,-5.2961823E-2,5.809172E-2,-5.332242E-2,1.4915314E0,5.455397E-1,-5.4074965E-2,1.6526234E0,-5.3108227E-2,6.8955046E-1,-1.6267483E0,1.7073472E0,1.0048631E0,1.7792453E0,4.438444E-2,-5.422197E-2,4.9148917E-2,5.3821944E-2,3.2899916E-2,5.256108E-2,4.9529508E-2,4.966411E-2,2.2379646E-2,3.2339856E-2,-2.5836775E-2,5.546422E-2,4.4140324E-2,5.515273E-2,-5.294187E-2,-5.0066553E-2,1.1083902E-2,3.8601253E-2,5.2039906E-2,5.242331E-2,-5.6075886E-2,5.7430796E-2,5.2001067E-2],"categories":[],"categories_nodes":[],"categories_segments":[],"categories_sizes":[],"default_left":[0,0,0,0,0,0,0,0,0,0,0,0,0,0,0,0,0,0,0,0,0,0,0,0,0,0,0,0,0,0,0,0,0,0,0,0,0,0,0,0,0,0,0,0,0,0,0,0,0,0,0,0,0,0,0,0,0,0,0,0,0,0,0,0,0,0,0,0,0,0,0,0,0,0,0,0,0,0,0,0,0,0,0,0,0,0,0,0,0,0,0,0,0],"id":5,"left_children":[1,3,5,7,9,11,13,-1,-1,15,-1,17,19,21,-1,-1,23,25,27,29,31,33,35,37,-1,-1,-1,39,-1,41,43,45,47,49,-1,51,-1,53,55,-1,57,59,-1,-1,-1,-1,61,63,65,67,-1,69,71,-1,73,75,-1,-1,-1,-1,77,79,-1,81,-1,83,85,87,89,91,-1,-1,-1,-1,-1,-1,-1,-1,-1,-1,-1,-1,-1,-1,-1,-1,-1,-1,-1,-1,-1,-1,-1],"loss_changes":[1.7334739E5,7.2443438E3,2.0768422E4,1.2525988E3,1.661125E3,3.9567969E3,4.0208293E3,0E0,0E0,6.6921875E2,0E0,6.048828E2,4.4438574E3,2.6849448E3,0E0,0E0,3.8978125E2,9.72678E2,1.850625E2,1.9181967E3,3.1068691E3,8.9700684E2,3.2767253E3,1.2624219E2,0E0,0E0,0E0,1.3986072E3,0E0,9.432124E2,1.3752731E3,2.8581255E3,2.3276445E3,4.7370947E2,0E0,1.0254529E3,0E0,6.0576196E2,3.8460938E1,0E0,3.878192E2,7.6467896E2,0E0,0E0,0E0,0E0,1.8168237E3,7.421572E2,1.1166289E3,8.2770996E1,0E0,1.0761719E1,1.0124077E3,0E0,6.063611E1,5.734375E0,0E0,0E0,0E0,0E0,1.3542676E2,1.5109114E3,0E0,1.0489746E1,0E0,5.9731836E2,1.0212617E3,3.0346191E1,3.830521E2,3.399414E0,0E0,0E0,0E0,0E0,0E0,0E0,0E0,0E0,0E0,0E0,0E0,0E0,0E0,0E0,0E0,0E0,0E0,0E0,0E0,0E0,0E0,0E0,0E0],"parents":[2147483647,0,0,1,1,2,2,3,3,4,4,5,5,6,6,9,9,11,11,12,12,13,13,16,16,17,17,18,18,19,19,20,20,21,21,22,22,23,23,27,27,29,29,30,30,31,31,32,32,33,33,35,35,37,37,38,38,40,40,41,41,46,46,47,47,48,48,49,49,51,51,52,52,54,54,55,55,60,60,61,61,63,63,65,65,66,66,67,67,68,68,69,69],"right_children":[2,4,6,8,10,12,14,-1,-1,16,-1,18,20,22,-1,-1,24,26,28,30,32,34,36,38,-1,-1,-1,40,-1,42,44,46,48,50,-1,52,-1,54,56,-1,58,60,-1,-1,-1,-1,62,64,66,68,-1,70,72,-1,74,76,-1,-1,-1,-1,78,80,-1,82,-1,84,86,88,90,92,-1,-1,-1,-1,-1,-1,-1,-1,-1,-1,-1,-1,-1,-1,-1,-1,-1,-1,-1,-1,-1,-1,-1],"split_conditions":[-1.6038146E0,-4.8692566E-1,2.7334445E0,3.0184243E0,5.086516E-1,3.1138754E-1,1.2036215E0,-5.290677E-2,3.699396E-2,-8.086045E-1,-5.3399675E-2,-1.4029363E0,-5.524064E-1,5.765613E-1,-5.2755967E-2,-5.345406E-2,-1.738453E-1,-1.5215603E0,-1.56027E0,-2.626698E-1,-5.439674E-1,2.5840244E-1,-1.3477428E-1,6.993455E-1,-5.4066632E-2,4.313919E-2,-5.2928817E-2,1.4769434E0,-5.2739218E-2,5.838968E-1,2.9789813E0,6.613875E-2,-2.1602323E0,7.6785713E-1,-5.321354E-2,2.9593694E0,-5.2843645E-2,-3.9207146E-1,-1.7706742E0,-5.2765854E-2,1.3100271E0,-1.597515E-1,-5.376344E-2,-5.333855E-2,5.0540965E-2,-5.297497E-2,6.3279843E-1,-1.6207708E-1,-1.1577721E0,1.1602465E0,-5.3304914E-2,-6.669457E-1,1.7877798E0,-5.481457E-2,-4.3764794E-1,-2.0239606E0,3.791537E-2,-5.2961823E-2,5.809172E-2,-5.332242E-2,3.6845632E-2,-1.9321035E-1,-5.4074965E-2,-2.9746177E0,-5.3108227E-2,-1.56027E0,2.007892E0,-2.4745004E-1,-9.1268754E-1,-1.511166E0,4.438444E-2,-5.422197E-2,4.9148917E-2,5.3821944E-2,3.2899916E-2,5.256108E-2,4.9529508E-2,4.966411E-2,2.2379646E-2,3.2339856E-2,-2.5836775E-2,5.546422E-2,4.4140324E-2,5.515273E-2,-5.294187E-2,-5.0066553E-2,1.1083902E-2,3.8601253E-2,5.2039906E-2,5.242331E-2,-5.6075886E-2,5.7430796E-2,5.2001067E-2],"split_indices":[10,4,4,7,12,4,3,0,0,11,0,20,8,10,0,0,3,19,13,13,10,12,8,11,0,0,0,11,0,15,17,16,19,3,0,4,0,19,10,0,18,18,0,0,0,0,16,10,20,7,0,12,22,0,11,10,0,0,0,0,20,26,0,12,0,13,15,26,16,11,0,0,0,0,0,0,0,0,0,0,0,0,0,0,0,0,0,0,0,0,0,0,0],"split_type":[0,0,0,0,0,0,0,0,0,0,0,0,0,0,0,0,0,0,0,0,0,0,0,0,0,0,0,0,0,0,0,0,0,0,0,0,0,0,0,0,0,0,0,0,0,0,0,0,0,0,0,0,0,0,0,0,0,0,0,0,0,0,0,0,0,0,0,0,0,0,0,0,0,0,0,0,0,0,0,0,0,0,0,0,0,0,0,0,0,0,0,0,0],"sum_hessian":[8.535824E4,3.5948008E4,4.9410234E4,8.863532E2,3.5061652E4,4.407323E4,5.337004E3,7.129872E2,1.7336604E2,3.492641E4,1.3524359E2,2.5819562E4,1.825367E4,4.7111543E3,6.2585E2,5.411117E1,3.4872297E4,3.9593326E2,2.5423629E4,1.981529E3,1.6272141E4,2.9515762E3,1.759578E3,3.484124E4,3.1060818E1,1.5739977E2,2.3853348E2,1.4578955E3,2.3965732E4,1.2940193E3,6.875098E2,3.5401396E3,1.2732001E4,2.8712861E3,8.0289925E1,1.0812728E3,6.783052E2,6.726743E2,3.4168562E4,1.2775361E3,1.8035942E2,1.1849652E3,1.0905402E2,5.4207245E2,1.4543735E2,1.1292972E3,2.4108425E3,3.7933362E2,1.2352667E4,2.8307153E3,4.0570858E1,7.3103516E2,3.5023758E2,5.6340828E1,6.163335E2,3.4004645E4,1.6391707E2,3.5101738E1,1.4525768E2,7.6452515E1,1.1085127E3,2.0170096E3,3.938329E2,2.990146E2,8.031902E1,2.1172502E2,1.2140942E4,2.6513706E3,1.7934486E2,5.771505E2,1.5388464E2,2.0359581E2,1.4664178E2,4.4223215E2,1.7410133E2,3.3416074E4,5.8857043E2,9.086435E2,1.9986922E2,1.4632047E3,5.5380493E2,1.4336607E2,1.5564851E2,1.442252E2,6.749982E1,1.1889973E4,2.5096931E2,1.6183957E2,2.489531E3,1.4253795E2,3.680692E1,1.4573648E2,4.3141406E2],"tree_param":{"num_deleted":"0","num_feature":"30","num_nodes":"93","size_leaf_vector":"1"}},{"base_weights":[-1.4091623E-3,1.6454988E0,-1.2386365E0,1.6640315E0,-5.2357588E-2,6.7410725E-1,-1.3409276E0,1.6775297E0,-5.292383E-2,-8.836655E-1,1.1434898E0,6.5952796E-1,-1.4050188E0,1.7097441E0,1.2674441E0,4.7569655E-2,-5.216E-2,-5.2274235E-2,1.2519045E0,1.2667224E0,-5.1750958E-2,-1.4870723E0,-3.7880558E-1,1.0298507E0,1.7133136E0,1.383132E0,-5.3985998E-2,1.3329806E0,-5.20598E-2,1.4448854E0,-5.2255765E-2,-1.5591488E0,-5.987137E-1,-5.194466E-2,2.8903866E-1,5.219051E-2,-5.430198E-2,5.146195E-2,1.6661122E0,1.4656496E0,-5.4002002E-2,1.4042594E0,-5.185585E-2,1.5878611E0,-5.276596E-2,-1.2091658E0,-1.6234748E0,-5.187582E-2,-1.6981715E-1,-5.2498944E-2,7.5177366E-1,5.128076E-2,3.9576285E-2,1.5410718E0,-5.3481326E-2,1.6401198E0,9.2232597E-1,3.411707E-2,1.6772275E0,-1.3550004E0,6.1541015E-1,-1.0732113E0,-1.6523287E0,2.4929781E-1,-5.1939514E-2,1.0298138E0,-5.3617883E-2,4.769683E-2,-5.6556348E-2,5.073414E-2,3.944658E-2,-5.2054323E-2,4.618005E-2,5.182054E-2,4.330973E-2,-5.1771745E-2,-2.5723055E-2,5.3404555E-2,-5.320224E-2,-5.2095167E-2,4.4719153E-3,-2.6825432E-2,-5.0009754E-2,-5.1607005E-2,1.7834488E-2,3.7171733E-2,-5.2640453E-2],"categories":[],"categories_nodes":[],"categories_segments":[],"categories_sizes":[],"default_left":[0,0,0,0,0,0,0,0,0,0,0,0,0,0,0,0,0,0,0,0,0,0,0,0,0,0,0,0,0,0,0,0,0,0,0,0,0,0,0,0,0,0,0,0,0,0,0,0,0,0,0,0,0,0,0,0,0,0,0,0,0,0,0,0,0,0,0,0,0,0,0,0,0,0,0,0,0,0,0,0,0,0,0,0,0,0,0],"id":6,"left_children":[1,3,5,7,-1,9,11,13,-1,15,17,19,21,23,25,-1,-1,-1,27,29,-1,31,33,35,37,39,-1,41,-1,43,-1,45,47,-1,49,-1,-1,-1,51,53,-1,55,-1,57,-1,59,61,-1,63,-1,65,-1,-1,67,-1,69,71,-1,73,75,77,79,81,83,-1,85,-1,-1,-1,-1,-1,-1,-1,-1,-1,-1,-1,-1,-1,-1,-1,-1,-1,-1,-1,-1,-1],"loss_changes":[1.745447E5,2.309336E3,9.570578E3,1.6913438E3,0E0,1.8157122E3,5.9531562E3,4.808125E2,0E0,1.2141238E3,5.9715845E2,2.0871873E3,3.7883516E3,8.18125E1,9.409707E2,0E0,0E0,0E0,4.455542E2,6.1598474E2,0E0,2.6674062E3,3.009245E3,3.5579285E2,3.15625E0,6.713408E2,0E0,3.9087305E2,0E0,4.9701978E2,0E0,8.673828E2,1.5158695E3,0E0,2.104203E3,0E0,0E0,0E0,2.1212402E1,6.103799E2,0E0,1.9882495E2,0E0,4.1715088E1,0E0,1.5920117E3,5.1671094E2,0E0,1.4833926E3,0E0,1.2832689E3,0E0,0E0,4.0736426E2,0E0,1.937378E1,9.431489E2,0E0,1.0009766E1,1.0218457E3,1.2323214E3,1.3149591E3,3.437422E2,1.2149604E3,0E0,9.5464087E2,0E0,0E0,0E0,0E0,0E0,0E0,0E0,0E0,0E0,0E0,0E0,0E0,0E0,0E0,0E0,0E0,0E0,0E0,0E0,0E0,0E0],"parents":[2147483647,0,0,1,1,2,2,3,3,5,5,6,6,7,7,9,9,10,10,11,11,12,12,13,13,14,14,18,18,19,19,21,21,22,22,23,23,24,24,25,25,27,27,29,29,31,31,32,32,34,34,38,38,39,39,41,41,43,43,45,45,46,46,48,48,50,50,53,53,55,55,56,56,58,58,59,59,60,60,61,61,62,62,63,63,65,65],"right_children":[2,4,6,8,-1,10,12,14,-1,16,18,20,22,24,26,-1,-1,-1,28,30,-1,32,34,36,38,40,-1,42,-1,44,-1,46,48,-1,50,-1,-1,-1,52,54,-1,56,-1,58,-1,60,62,-1,64,-1,66,-1,-1,68,-1,70,72,-1,74,76,78,80,82,84,-1,86,-1,-1,-1,-1,-1,-1,-1,-1,-1,-1,-1,-1,-1,-1,-1,-1,-1,-1,-1,-1,-1],"split_conditions":[-2.1934204E0,5.765613E-1,-9.881263E-1,1.9613428E0,-5.2357588E-2,-1.3940476E-1,-3.452607E0,-1.7706742E0,-5.292383E-2,-1.6078086E0,-7.230147E-1,-3.8916102E-1,1.1242766E0,6.993455E-1,1.0114255E0,4.7569655E-2,-5.216E-2,-5.2274235E-2,1.9838585E0,1.0984255E0,-5.1750958E-2,1.2803149E0,-1.6660692E-1,-7.310826E0,-3.6391127E0,5.2097845E-1,-5.3985998E-2,1.2036215E0,-5.20598E-2,4.844874E-1,-5.2255765E-2,-6.498678E-1,1.0642686E-2,-5.194466E-2,-6.827559E-1,5.219051E-2,-5.430198E-2,5.146195E-2,-5.2627444E-1,5.017903E-1,-5.4002002E-2,-4.2590785E-1,-5.185585E-2,6.135012E-1,-5.276596E-2,1.4769434E0,-6.031734E-1,-5.187582E-2,1.2858926E-1,-5.2498944E-2,7.384504E-1,5.128076E-2,3.9576285E-2,1.1602465E0,-5.3481326E-2,3.2566628E-1,4.393598E-1,3.411707E-2,6.1547154E-1,4.7581387E-1,1.5006801E0,1.2109509E0,-1.1653591E0,-8.167984E-1,-5.1939514E-2,8.649269E-1,-5.3617883E-2,4.769683E-2,-5.6556348E-2,5.073414E-2,3.944658E-2,-5.2054323E-2,4.618005E-2,5.182054E-2,4.330973E-2,-5.1771745E-2,-2.5723055E-2,5.3404555E-2,-5.320224E-2,-5.2095167E-2,4.4719153E-3,-2.6825432E-2,-5.0009754E-2,-5.1607005E-2,1.7834488E-2,3.7171733E-2,-5.2640453E-2],"split_indices":[14,10,20,1,0,28,3,10,0,17,21,10,17,11,15,0,0,0,6,14,0,7,18,1,14,25,0,3,0,8,0,14,14,0,1,0,0,0,18,22,0,14,0,22,0,11,8,0,28,0,5,0,0,7,0,28,22,0,18,5,11,6,25,6,0,9,0,0,0,0,0,0,0,0,0,0,0,0,0,0,0,0,0,0,0,0,0],"split_type":[0,0,0,0,0,0,0,0,0,0,0,0,0,0,0,0,0,0,0,0,0,0,0,0,0,0,0,0,0,0,0,0,0,0,0,0,0,0,0,0,0,0,0,0,0,0,0,0,0,0,0,0,0,0,0,0,0,0,0,0,0,0,0,0,0,0,0,0,0,0,0,0,0,0,0,0,0,0,0,0,0,0,0,0,0,0,0],"sum_hessian":[8.566182E4,3.6746934E4,4.8914887E4,3.6547207E4,1.9972708E2,2.483096E3,4.6431793E4,3.6403895E4,1.433115E2,5.749434E2,1.9081526E3,1.4414006E3,4.499039E4,3.37523E4,2.651595E3,1.4786111E2,4.270823E2,6.9057304E1,1.8390952E3,1.1488799E3,2.9252078E2,4.1659387E4,3.3310059E3,1.7635835E2,3.357594E4,2.5552397E3,9.6355316E1,1.7905284E3,4.856679E1,1.0846753E3,6.4204636E1,3.8532996E4,3.126391E3,1.100968E3,2.2300378E3,1.4110918E2,3.5249176E1,3.215394E4,1.4220021E3,2.4907026E3,6.453711E1,1.7498179E3,4.0710594E1,1.0383628E3,4.6312496E1,5.9828438E3,3.255015E4,8.598488E2,2.2665422E3,4.124521E2,1.8175858E3,1.264191E3,1.5781111E2,2.434212E3,5.649062E1,1.1747573E3,5.750606E2,1.7196698E2,8.6639575E2,5.5400527E3,4.4279083E2,1.6218774E3,3.0928273E4,1.7869584E3,4.7958395E2,1.6382224E3,1.7936343E2,2.4000417E3,3.4170277E1,1.01526965E3,1.5948761E2,1.08340096E2,4.667205E2,7.130353E2,1.5336047E2,3.1745989E3,2.3654539E3,2.9766757E2,1.4512326E2,1.0513285E3,5.70549E2,5.8688635E2,3.0341387E4,2.6645056E2,1.5205078E3,1.5237484E3,1.1447394E2],"tree_param":{"num_deleted":"0","num_feature":"30","num_nodes":"87","size_leaf_vector":"1"}},{"base_weights":[2.774383E-2,1.5763353E0,-1.2591171E0,-5.0985444E-2,1.601213E0,-1.4645389E0,-1.0339785E-2,1.674332E0,9.9054533E-1,-7.02466E-1,-1.5374283E0,6.799796E-1,-1.2786084E0,3.5729837E-2,1.6766024E0,3.435989E-1,1.5700151E0,1.1320504E0,-1.313857E0,-1.5836662E0,-8.079715E-1,1.1732159E0,-5.2443427E-1,-5.0650172E-2,1.4352775E0,1.6775931E0,4.345411E-2,-2.2483091E-1,1.5537288E0,1.6306932E0,-5.626086E-2,-5.1239323E-2,1.5168486E0,-5.0671194E-2,5.445231E-1,-1.5976247E0,-1.19402885E-1,3.2256785E-1,-5.098677E-2,1.3257031E0,-5.09778E-2,1.0480207E0,-5.0756283E-2,3.4422435E-2,5.309563E-2,1.6764987E0,5.811805E-2,7.49002E-1,-5.2310005E-2,1.7317276E0,-5.363049E-2,1.6742224E0,3.3813655E-2,-5.261674E-2,1.6885366E0,-5.08169E-2,1.638725E0,-1.6231414E0,-8.938945E-1,-5.1223144E-2,5.007295E-2,-5.1409017E-2,1.2012947E0,1.4393407E0,-5.1376E-2,-5.144853E-2,1.5958477E0,5.0320625E-2,4.4320367E-2,1.6164018E0,-3.2760328E-1,4.5949668E-2,1.8033879E0,4.1371677E-2,1.6988076E0,1.8023772E0,3.8720395E-2,5.5816505E-2,4.3040317E-2,-1.2780491E0,-1.6675602E0,5.0856763E-1,-5.0970342E-2,1.5421963E0,-5.221847E-2,1.4810883E0,-5.5235557E-2,1.7397634E0,3.9737646E-2,5.3147268E-2,4.0521502E-2,-5.281378E-2,5.493515E-2,4.931575E-2,5.6553323E-2,5.545988E-2,5.058085E-2,5.848185E-2,4.9619395E-2,-5.0613817E-2,1.0592322E-3,-4.1287165E-2,-5.057363E-2,4.1127536E-2,-5.1538877E-2,5.183112E-2,3.227944E-2,-5.246009E-2,4.556355E-2,4.915063E-2,5.5325635E-2],"categories":[],"categories_nodes":[],"categories_segments":[],"categories_sizes":[],"default_left":[0,0,0,0,0,0,0,0,0,0,0,0,0,0,0,0,0,0,0,0,0,0,0,0,0,0,0,0,0,0,0,0,0,0,0,0,0,0,0,0,0,0,0,0,0,0,0,0,0,0,0,0,0,0,0,0,0,0,0,0,0,0,0,0,0,0,0,0,0,0,0,0,0,0,0,0,0,0,0,0,0,0,0,0,0,0,0,0,0,0,0,0,0,0,0,0,0,0,0,0,0,0,0,0,0,0,0,0,0,0,0],"id":7,"left_children":[1,3,5,-1,7,9,11,13,15,17,19,21,23,-1,25,27,29,31,33,35,37,39,41,-1,43,45,-1,47,49,51,-1,-1,53,-1,55,57,59,61,-1,63,-1,65,-1,-1,-1,67,-1,69,-1,71,-1,73,-1,-1,75,-1,77,79,81,-1,-1,-1,83,85,-1,-1,87,-1,-1,89,91,-1,93,-1,95,97,-1,-1,-1,99,101,103,-1,105,-1,107,-1,109,-1,-1,-1,-1,-1,-1,-1,-1,-1,-1,-1,-1,-1,-1,-1,-1,-1,-1,-1,-1,-1,-1,-1],"loss_changes":[1.7253952E5,3.202461E3,1.2130148E4,0E0,1.7412422E3,2.2555E3,5.848242E3,3.8109375E1,1.5633577E3,3.9760752E3,1.2499688E3,2.5696177E3,2.6180784E3,0E0,7.703125E0,1.3554718E3,4.6006543E2,9.685375E2,1.853873E3,7.1233594E2,2.2269429E3,1.3442852E3,2.3071897E3,0E0,2.9637024E1,9.625E0,0E0,1.9831935E3,3.7473877E2,4.7285645E1,0E0,0E0,4.3840417E2,0E0,1.0941416E3,6.198594E2,9.3503735E2,1.7431376E3,0E0,1.0062461E3,0E0,8.1073444E2,0E0,0E0,0E0,5.7265625E0,0E0,7.629792E2,0E0,8.424316E0,0E0,1.43125E1,0E0,0E0,3.346045E1,0E0,1.3436768E1,5.105625E2,1.3641764E3,0E0,0E0,0E0,6.826418E2,3.848579E2,0E0,0E0,1.7323853E1,0E0,0E0,1.852539E1,1.1279053E3,0E0,5.569214E0,0E0,3.349121E0,1.2402222E1,0E0,0E0,0E0,2.0413022E3,1.5660938E2,8.461872E2,0E0,5.2646606E1,0E0,3.37854E2,0E0,2.9279175E0,0E0,0E0,0E0,0E0,0E0,0E0,0E0,0E0,0E0,0E0,0E0,0E0,0E0,0E0,0E0,0E0,0E0,0E0,0E0,0E0,0E0,0E0,0E0],"parents":[2147483647,0,0,1,1,2,2,4,4,5,5,6,6,7,7,8,8,9,9,10,10,11,11,12,12,14,14,15,15,16,16,17,17,18,18,19,19,20,20,21,21,22,22,24,24,25,25,27,27,28,28,29,29,32,32,34,34,35,35,36,36,37,37,39,39,41,41,45,45,47,47,49,49,51,51,54,54,56,56,57,57,58,58,62,62,63,63,66,66,69,69,70,70,72,72,74,74,75,75,79,79,80,80,81,81,83,83,85,85,87,87],"right_children":[2,4,6,-1,8,10,12,14,16,18,20,22,24,-1,26,28,30,32,34,36,38,40,42,-1,44,46,-1,48,50,52,-1,-1,54,-1,56,58,60,62,-1,64,-1,66,-1,-1,-1,68,-1,70,-1,72,-1,74,-1,-1,76,-1,78,80,82,-1,-1,-1,84,86,-1,-1,88,-1,-1,90,92,-1,94,-1,96,98,-1,-1,-1,100,102,104,-1,106,-1,108,-1,110,-1,-1,-1,-1,-1,-1,-1,-1,-1,-1,-1,-1,-1,-1,-1,-1,-1,-1,-1,-1,-1,-1,-1],"split_conditions":[-1.7862202E0,-7.627984E-1,1.6173303E0,-5.0985444E-2,-1.4177446E0,-1.5005049E0,-2.32212E-1,3.3010873E-1,1.8899992E0,-6.031734E-1,1.1242766E0,1.3905992E-3,2.1810586E0,3.5729837E-2,1.2646915E0,1.8345E2,2.0834403E-1,-2.1693446E-1,1.2720131E0,2.007892E0,-1.0436897E0,1.2330933E0,-9.347488E-2,-5.0650172E-2,1.201784E0,-1.5736994E-1,4.345411E-2,-2.1945287E-1,1.628699E-1,9.5E0,-5.626086E-2,-5.1239323E-2,-7.407083E-2,-5.0671194E-2,1.275E2,5.0856E2,8.215468E-1,3.1253296E-1,-5.098677E-2,1.0429915E0,-5.09778E-2,4.9922943E-1,-5.0756283E-2,3.4422435E-2,5.309563E-2,-2.6386878E0,5.811805E-2,-2.9354733E-1,-5.2310005E-2,3.9048195E-1,-5.363049E-2,-1.5803444E0,3.3813655E-2,-5.261674E-2,-2.491429E-1,-5.08169E-2,-1.0721478E0,1.29E0,-3.0235875E-2,-5.1223144E-2,5.007295E-2,-5.1409017E-2,-3.0034387E-1,5.5364496E-1,-5.1376E-2,-5.144853E-2,3.99E0,5.0320625E-2,4.4320367E-2,-3.6391127E0,-2.2985667E-1,4.5949668E-2,-2.033027E0,4.1371677E-2,-5.627767E-1,-5.6989634E-1,3.8720395E-2,5.5816505E-2,4.3040317E-2,8.930762E-1,-1.3322396E0,7.4088323E-1,-5.0970342E-2,5.221219E-1,-5.221847E-2,-1.7376921E0,-5.5235557E-2,-2.3610078E-1,3.9737646E-2,5.3147268E-2,4.0521502E-2,-5.281378E-2,5.493515E-2,4.931575E-2,5.6553323E-2,5.545988E-2,5.058085E-2,5.848185E-2,4.9619395E-2,-5.0613817E-2,1.0592322E-3,-4.1287165E-2,-5.057363E-2,4.1127536E-2,-5.1538877E-2,5.183112E-2,3.227944E-2,-5.246009E-2,4.556355E-2,4.915063E-2,5.5325635E-2],"split_indices":[14,4,4,0,12,13,12,11,4,8,17,8,17,0,9,29,23,4,11,15,14,3,6,0,20,3,0,15,11,29,0,0,9,0,29,29,20,15,0,14,0,11,0,0,0,14,0,22,0,20,0,9,0,0,2,0,14,29,20,0,0,0,13,25,0,0,29,0,0,14,15,0,14,0,5,15,0,0,0,4,6,6,0,15,0,11,0,6,0,0,0,0,0,0,0,0,0,0,0,0,0,0,0,0,0,0,0,0,0,0,0],"split_type":[0,0,0,0,0,0,0,0,0,0,0,0,0,0,0,0,0,0,0,0,0,0,0,0,0,0,0,0,0,0,0,0,0,0,0,0,0,0,0,0,0,0,0,0,0,0,0,0,0,0,0,0,0,0,0,0,0,0,0,0,0,0,0,0,0,0,0,0,0,0,0,0,0,0,0,0,0,0,0,0,0,0,0,0,0,0,0,0,0,0,0,0,0,0,0,0,0,0,0,0,0,0,0,0,0,0,0,0,0,0,0],"sum_hessian":[8.658038E4,3.9294223E4,4.728616E4,2.9613474E2,3.899809E4,4.0606457E4,6.679701E3,3.482784E4,4.170248E3,3.5448564E3,3.70616E4,4.325406E3,2.354296E3,1.6296187E2,3.466488E4,1.9704424E3,2.1998057E3,8.860781E2,2.6587783E3,3.4852363E4,2.2092407E3,3.0687007E3,1.2567047E3,2.0454961E3,3.087997E2,3.4514656E4,1.5022377E2,1.3407164E3,6.297259E2,2.1617622E3,3.8043423E1,1.0570804E2,7.803701E2,2.212174E3,4.4660428E2,3.4523254E4,3.2910715E2,9.741042E2,1.2351367E3,2.9140361E3,1.5466457E2,5.354714E2,7.212334E2,1.6611566E2,1.4268407E2,3.43702E4,1.444557E2,8.169436E2,5.237729E2,5.979013E2,3.1824598E1,1.98965E3,1.7211227E2,3.8895523E1,7.414746E2,1.4662419E2,2.9998007E2,3.33152E4,1.2080537E3,1.7432446E2,1.5478268E2,2.936355E2,6.804687E2,2.8090007E3,1.0503536E2,8.858372E1,4.4688763E2,3.422277E4,1.4742801E2,4.5241483E2,3.6452878E2,1.5799403E2,4.399073E2,1.5321759E2,1.8364324E3,5.763662E2,1.651084E2,1.4351964E2,1.5646043E2,3.7993684E3,2.9515832E4,4.4059146E2,7.674622E2,6.098288E2,7.06399E1,2.7737322E3,3.5268646E1,2.9178885E2,1.5509877E2,2.8541357E2,1.6700125E2,2.1910854E2,1.4542023E2,1.4940118E2,2.905061E2,1.4369164E2,1.6927407E3,2.8920074E2,2.8716544E2,2.897007E3,9.023613E2,1.7382468E3,2.7777586E4,3.176025E2,1.2298893E2,4.361415E2,1.7368724E2,3.1972378E1,2.7417598E3,1.4848747E2,1.4330139E2],"tree_param":{"num_deleted":"0","num_feature":"30","num_nodes":"111","size_leaf_vector":"1"}},{"base_weights":[2.1280253E-2,1.5420921E0,-1.212898E0,-7.772544E-1,1.5764287E0,-1.4389354E0,-1.2835519E-1,-5.0165884E-2,4.2205814E-2,1.5906607E0,-5.0210886E-2,-1.4719923E0,5.900115E-1,7.4674064E-1,-1.0537257E0,1.6421255E0,1.1252195E0,-1.4432304E-1,-1.5063745E0,-5.1012572E-2,1.4364969E0,1.2278664E0,-4.4498605E-1,-1.3723274E0,1.1864262E0,1.6443228E0,1.3951854E0,1.2585173E0,-5.2753605E-2,-5.003639E-2,1.1662953E0,-1.1139807E0,-1.5866579E0,1.6788126E0,1.0295296E0,1.3902663E0,-5.1795945E-2,1.5900671E0,-1.1257302E0,-6.1252826E-1,-4.983493E-2,-5.1847402E-2,1.583712E0,4.936016E-2,4.2452484E-2,5.0054945E-2,3.472004E-2,1.3422568E0,-5.1191267E-2,-5.015583E-2,1.5977371E0,-4.9767163E-2,-3.3034042E-1,-2.6660863E-1,-1.6021184E0,5.359046E-2,4.7152832E-2,-5.098869E-2,4.9189787E-2,1.4683942E0,-5.1087905E-2,3.820706E-2,5.7913348E-2,4.399674E-2,-5.026221E-2,-4.9659684E-2,1.705181E0,4.13664E-2,5.083092E-2,-5.1711302E-2,1.4063272E0,5.4033473E-2,3.736869E-2,7.446645E-1,-5.000792E-2,5.3898357E-2,-4.9636085E-2,-1.2383244E0,-1.6327869E0,-5.187231E-2,1.5051575E0,5.9708036E-2,4.292593E-2,4.347044E-2,-5.1613808E-2,3.65774E-2,-5.0037798E-2,3.1064501E-2,-4.311176E-2,-4.955414E-2,-4.062538E-2,5.01984E-2,3.7937E-2],"categories":[],"categories_nodes":[],"categories_segments":[],"categories_sizes":[],"default_left":[0,0,0,0,0,0,0,0,0,0,0,0,0,0,0,0,0,0,0,0,0,0,0,0,0,0,0,0,0,0,0,0,0,0,0,0,0,0,0,0,0,0,0,0,0,0,0,0,0,0,0,0,0,0,0,0,0,0,0,0,0,0,0,0,0,0,0,0,0,0,0,0,0,0,0,0,0,0,0,0,0,0,0,0,0,0,0,0,0,0,0,0,0],"id":8,"left_children":[1,3,5,7,9,11,13,-1,-1,15,-1,17,19,21,23,25,27,29,31,-1,33,35,37,39,41,43,45,47,-1,-1,49,51,53,55,57,59,-1,61,63,65,-1,-1,67,-1,-1,-1,-1,69,-1,-1,71,-1,73,75,77,-1,-1,-1,-1,79,-1,-1,-1,-1,-1,-1,81,-1,-1,-1,83,-1,-1,85,-1,-1,-1,87,89,-1,91,-1,-1,-1,-1,-1,-1,-1,-1,-1,-1,-1,-1],"loss_changes":[1.6024098E5,3.0458594E3,1.1553195E4,1.0907762E3,1.7434062E3,2.6157656E3,6.582176E3,0E0,0E0,8.9871875E2,0E0,1.7517109E3,1.2123881E3,2.3953555E3,2.8197295E3,1.821875E1,1.4362236E3,1.934482E3,1.1782734E3,0E0,4.4930725E1,1.4280532E3,1.6646747E3,7.58999E2,5.697952E2,7.671875E0,1.929126E1,8.867373E2,0E0,0E0,6.3785364E2,2.7130552E3,6.337031E2,3.142334E0,2.8410684E2,6.818906E2,0E0,3.2316345E1,1.2831392E3,2.302893E3,0E0,0E0,9.687256E0,0E0,0E0,0E0,0E0,6.823579E2,0E0,0E0,3.225525E1,0E0,3.744479E3,1.0297334E3,3.4233594E2,0E0,0E0,0E0,0E0,3.2359033E2,0E0,0E0,0E0,0E0,0E0,0E0,2.2970093E1,0E0,0E0,0E0,4.542046E2,0E0,0E0,1.6538799E3,0E0,0E0,0E0,1.0785049E3,1.4985938E2,0E0,1.099209E2,0E0,0E0,0E0,0E0,0E0,0E0,0E0,0E0,0E0,0E0,0E0,0E0],"parents":[2147483647,0,0,1,1,2,2,3,3,4,4,5,5,6,6,9,9,11,11,12,12,13,13,14,14,15,15,16,16,17,17,18,18,20,20,21,21,22,22,23,23,24,24,25,25,26,26,27,27,30,30,31,31,32,32,33,33,34,34,35,35,37,37,38,38,39,39,42,42,47,47,50,50,52,52,53,53,54,54,59,59,66,66,70,70,73,73,77,77,78,78,80,80],"right_children":[2,4,6,8,10,12,14,-1,-1,16,-1,18,20,22,24,26,28,30,32,-1,34,36,38,40,42,44,46,48,-1,-1,50,52,54,56,58,60,-1,62,64,66,-1,-1,68,-1,-1,-1,-1,70,-1,-1,72,-1,74,76,78,-1,-1,-1,-1,80,-1,-1,-1,-1,-1,-1,82,-1,-1,-1,84,-1,-1,86,-1,-1,-1,88,90,-1,92,-1,-1,-1,-1,-1,-1,-1,-1,-1,-1,-1,-1],"split_conditions":[-1.7862202E0,-4.8692566E-1,1.3927276E0,1.66816E5,1.9949301E0,3.0184243E0,-4.499466E-1,-5.0165884E-2,4.2205814E-2,-1.4177446E0,-5.0210886E-2,-9.881263E-1,6.808117E-1,2.7736637E-1,1.6216303E0,-2.6386878E0,1.9252004E-1,-2.0314326E0,-6.498678E-1,-5.1012572E-2,-5.3680897E-1,6.086428E-2,-2.2241905E0,-6.8609655E-1,3.425563E-1,7.779349E-1,-2.727102E0,1.1656382E0,-5.2753605E-2,-5.003639E-2,-2.1693446E-1,2.8507084E-1,-1.0521908E0,-1.1498803E0,3.4694517E-1,1.1953737E0,-5.1795945E-2,-9.847198E-2,-2.4487484E0,-6.9829303E-1,-4.983493E-2,-5.1847402E-2,-9.0568703E-1,4.936016E-2,4.2452484E-2,5.0054945E-2,3.472004E-2,-1.846527E-1,-5.1191267E-2,-5.015583E-2,-1.9597163E0,-4.9767163E-2,-3.0034387E-1,-8.8023084E-1,-1.5005049E0,5.359046E-2,4.7152832E-2,-5.098869E-2,4.9189787E-2,-3.7488896E-1,-5.1087905E-2,3.820706E-2,5.7913348E-2,4.399674E-2,-5.026221E-2,-4.9659684E-2,3.4807E4,4.13664E-2,5.083092E-2,-5.1711302E-2,4.166313E-1,5.4033473E-2,3.736869E-2,1.3253792E-1,-5.000792E-2,5.3898357E-2,-4.9636085E-2,-3.3582652E-1,1.5578718E0,-5.187231E-2,-7.4799E-2,5.9708036E-2,4.292593E-2,4.347044E-2,-5.1613808E-2,3.65774E-2,-5.0037798E-2,3.1064501E-2,-4.311176E-2,-4.955414E-2,-4.062538E-2,5.01984E-2,3.7937E-2],"split_indices":[14,4,4,0,1,7,12,0,0,12,0,20,19,14,17,14,26,1,14,0,26,27,8,18,23,9,7,15,0,0,4,15,26,16,28,1,0,1,19,18,0,0,1,0,0,0,0,28,0,0,13,0,13,23,13,0,0,0,0,23,0,0,0,0,0,0,0,0,0,0,8,0,0,9,0,0,0,28,13,0,6,0,0,0,0,0,0,0,0,0,0,0,0],"split_type":[0,0,0,0,0,0,0,0,0,0,0,0,0,0,0,0,0,0,0,0,0,0,0,0,0,0,0,0,0,0,0,0,0,0,0,0,0,0,0,0,0,0,0,0,0,0,0,0,0,0,0,0,0,0,0,0,0,0,0,0,0,0,0,0,0,0,0,0,0,0,0,0,0,0,0,0,0,0,0,0,0,0,0,0,0,0,0,0,0,0,0,0,0],"sum_hessian":[8.537283E4,3.8245242E4,4.7127582E4,5.579216E2,3.768732E4,3.8999414E4,8.128166E3,3.957681E2,1.6215347E2,3.752304E4,1.6428223E2,3.837421E4,6.252024E2,4.1775703E3,3.9505957E3,3.3787008E4,3.7360322E3,9.6868414E2,3.7405527E4,1.6869395E2,4.5650845E2,2.9760664E3,1.2015038E3,3.4587078E3,4.918879E2,3.348871E4,2.9829828E2,3.5709932E3,1.6503899E2,4.4794553E2,5.2073865E2,6.3534014E3,3.1052127E4,2.860317E2,1.7047672E2,2.8210261E3,1.5504012E2,3.0115198E2,9.003518E2,9.5271484E2,2.505993E3,5.8982754E1,4.3290515E2,3.3340633E4,1.4807802E2,1.3865126E2,1.5964703E2,3.472934E3,9.805893E1,6.869396E1,4.5204468E2,3.7474521E3,2.6059492E3,3.5948422E2,3.0692643E4,1.422718E2,1.4375992E2,3.1130743E1,1.3934598E2,2.7515557E3,6.947044E1,1.5618211E2,1.4496988E2,1.57498E2,7.428538E2,6.570895E2,2.9562534E2,1.5209018E2,2.8081497E2,7.106098E1,3.4018733E3,2.8640036E2,1.6564432E2,1.4443213E3,1.1616279E3,1.4456525E2,2.1491898E2,2.3864575E3,2.8306186E4,3.1248566E1,2.7203071E3,1.4480176E2,1.508236E2,3.3560842E3,4.578892E1,1.2069316E3,2.3738963E2,1.9179683E2,2.1946606E3,2.649722E4,1.8089652E3,1.6011312E3,1.119176E3],"tree_param":{"num_deleted":"0","num_feature":"30","num_nodes":"93","size_leaf_vector":"1"}},{"base_weights":[2.1596013E-2,1.513406E0,-1.1961193E0,-4.9471714E-2,1.5483541E0,-1.4101529E0,-1.5649074E-1,1.5622369E0,-4.92616E-2,-1.4538401E0,4.8439023E-1,9.6447486E-1,-6.2516373E-1,1.5733298E0,-5.1089756E-2,-1.5000546E0,-4.242336E-1,1.2365913E0,-4.9609397E-2,1.3006142E0,-4.8824437E-2,-9.1133404E-1,8.7582713E-1,1.6111922E0,1.1807218E0,-1.0861791E0,-1.5866935E0,1.3701838E0,-4.899879E-2,-4.965819E-2,1.5157074E0,1.4298141E0,-4.9825385E-2,-1.1475393E0,5.460671E-1,1.5495027E0,-4.9869817E-2,3.8247067E-2,1.6128455E0,-5.306217E-2,1.2916055E0,-1.8220477E-1,-1.518838E0,-1.6021482E0,-8.4713054E-1,-4.929222E-2,1.6347595E0,1.6513414E0,3.471985E-2,-4.9527552E-2,1.4954541E0,-1.2445041E0,9.925238E-1,1.3761468E0,-5.077173E-2,4.8986174E-2,3.7553284E-2,4.1989755E-2,1.6137677E0,1.3537078E0,-5.123179E-2,5.613728E-1,-4.9401183E-2,-4.8901174E-2,3.9756365E-2,-4.8610374E-2,-1.3145423E0,1.108615E0,-4.8908766E-2,1.7627957E0,3.895135E-2,4.563551E-2,5.1478937E-2,1.629289E0,1.1189865E0,8.4273314E-1,-1.3547398E0,-4.901277E-2,5.036162E-2,1.6583834E0,-5.0546322E-2,4.8390456E-2,5.3681947E-2,2.468806E-2,4.7733176E-2,3.446279E-2,-4.9854897E-2,3.063864E-2,-4.9131323E-2,-5.1032003E-2,5.2500702E-2,4.7234323E-2,5.5742428E-2,3.9062273E-2,5.0057087E-2,4.389009E-2,-5.1116392E-2,5.0596386E-2,-4.924091E-2,1.933631E-2,-4.4486035E-2,4.2819776E-2,5.3289834E-2],"categories":[],"categories_nodes":[],"categories_segments":[],"categories_sizes":[],"default_left":[0,0,0,0,0,0,0,0,0,0,0,0,0,0,0,0,0,0,0,0,0,0,0,0,0,0,0,0,0,0,0,0,0,0,0,0,0,0,0,0,0,0,0,0,0,0,0,0,0,0,0,0,0,0,0,0,0,0,0,0,0,0,0,0,0,0,0,0,0,0,0,0,0,0,0,0,0,0,0,0,0,0,0,0,0,0,0,0,0,0,0,0,0,0,0,0,0,0,0,0,0,0,0],"id":9,"left_children":[1,3,5,-1,7,9,11,13,-1,15,17,19,21,23,-1,25,27,29,-1,31,-1,33,35,37,39,41,43,45,-1,-1,47,49,-1,51,53,55,-1,-1,57,-1,59,61,63,65,67,-1,69,71,-1,-1,73,75,77,79,-1,-1,-1,-1,81,83,-1,85,-1,-1,-1,-1,87,89,-1,91,-1,-1,-1,93,95,97,99,-1,-1,101,-1,-1,-1,-1,-1,-1,-1,-1,-1,-1,-1,-1,-1,-1,-1,-1,-1,-1,-1,-1,-1,-1,-1],"loss_changes":[1.5343973E5,4.1956016E3,1.0348039E4,0E0,1.6630859E3,3.192E3,4.171278E3,1.3541797E3,0E0,1.7936484E3,1.3981368E3,2.039624E3,2.404973E3,5.5372656E2,0E0,1.2935312E3,3.5134956E3,5.192115E2,0E0,7.929866E2,0E0,1.618804E3,1.5331411E3,1.878125E1,1.071896E3,2.4424985E3,3.4089844E2,5.198804E2,0E0,0E0,2.8406494E1,4.016565E2,0E0,8.397705E2,1.2187964E3,1.7476562E1,0E0,0E0,6.5234375E0,0E0,5.8842773E2,2.2014438E3,1.3358662E3,1.528125E2,9.355556E2,0E0,2.5689331E1,3.4372559E0,0E0,0E0,9.785889E1,8.9077246E2,3.1629706E2,4.1352368E2,0E0,0E0,0E0,0E0,4.296875E0,3.8983398E2,0E0,1.7510505E3,0E0,0E0,0E0,0E0,1.3129287E3,3.1493958E2,0E0,7.6292725E0,0E0,0E0,0E0,1.8316406E1,4.9546643E2,4.072766E2,9.419678E2,0E0,0E0,1.1802856E1,0E0,0E0,0E0,0E0,0E0,0E0,0E0,0E0,0E0,0E0,0E0,0E0,0E0,0E0,0E0,0E0,0E0,0E0,0E0,0E0,0E0,0E0,0E0],"parents":[2147483647,0,0,1,1,2,2,4,4,5,5,6,6,7,7,9,9,10,10,11,11,12,12,13,13,15,15,16,16,17,17,19,19,21,21,22,22,23,23,24,24,25,25,26,26,27,27,30,30,31,31,33,33,34,34,35,35,38,38,40,40,41,41,42,42,43,43,44,44,46,46,47,47,50,50,51,51,52,52,53,53,58,58,59,59,61,61,66,66,67,67,69,69,73,73,74,74,75,75,76,76,79,79],"right_children":[2,4,6,-1,8,10,12,14,-1,16,18,20,22,24,-1,26,28,30,-1,32,-1,34,36,38,40,42,44,46,-1,-1,48,50,-1,52,54,56,-1,-1,58,-1,60,62,64,66,68,-1,70,72,-1,-1,74,76,78,80,-1,-1,-1,-1,82,84,-1,86,-1,-1,-1,-1,88,90,-1,92,-1,-1,-1,94,96,98,100,-1,-1,102,-1,-1,-1,-1,-1,-1,-1,-1,-1,-1,-1,-1,-1,-1,-1,-1,-1,-1,-1,-1,-1,-1,-1],"split_conditions":[-1.7862202E0,-4.5951384E-1,1.3927276E0,-4.9471714E-2,1.9949301E0,2.496678E0,-7.2493565E-1,5.765613E-1,-4.92616E-2,6.76582E-1,-3.3329016E-1,1.2330933E0,7.5936776E-1,-1.7706742E0,-5.1089756E-2,-6.498678E-1,-1.33873E0,2.0522979E-1,-4.9609397E-2,1.1953737E0,-4.8824437E-2,1.2803149E0,-1.2075584E0,1.3784377E-1,-1.4313093E0,-5.606628E-1,7.5936776E-1,3.8176823E-1,-4.899879E-2,-4.965819E-2,7.253819E-2,-9.959302E-1,-4.9825385E-2,1.4088022E0,1.4433281E0,-3.9238447E-1,-4.9869817E-2,3.8247067E-2,6.7671455E-2,-5.306217E-2,6.231528E-1,-8.853309E-2,2.2131493E0,1.5578718E0,-1.5005049E0,-4.929222E-2,4.8567885E-1,-6.553419E-2,3.471985E-2,-4.9527552E-2,-1.8304923E-1,-2.4487484E0,9.3696856E-1,1.4761601E-1,-5.077173E-2,4.8986174E-2,3.7553284E-2,4.1989755E-2,2.496678E0,2.1742768E0,-5.123179E-2,-5.439674E-1,-4.9401183E-2,-4.8901174E-2,3.9756365E-2,-4.8610374E-2,-8.5958076E-1,1.2559055E0,-4.8908766E-2,8.1003225E-1,3.895135E-2,4.563551E-2,5.1478937E-2,-1.7507021E-1,-1.0946551E-1,1.9334E4,-1.1513635E0,-4.901277E-2,5.036162E-2,7.201789E-1,-5.0546322E-2,4.8390456E-2,5.3681947E-2,2.468806E-2,4.7733176E-2,3.446279E-2,-4.9854897E-2,3.063864E-2,-4.9131323E-2,-5.1032003E-2,5.2500702E-2,4.7234323E-2,5.5742428E-2,3.9062273E-2,5.0057087E-2,4.389009E-2,-5.1116392E-2,5.0596386E-2,-4.924091E-2,1.933631E-2,-4.4486035E-2,4.2819776E-2,5.3289834E-2],"split_indices":[14,4,4,0,1,7,14,10,0,21,26,3,23,10,0,14,13,14,0,1,0,7,13,11,6,13,23,19,0,0,23,11,0,26,7,21,0,0,4,0,22,23,11,13,13,0,19,17,0,0,20,19,22,14,0,0,0,0,7,4,0,10,0,0,0,0,17,11,0,22,0,0,0,28,21,0,21,0,0,22,0,0,0,0,0,0,0,0,0,0,0,0,0,0,0,0,0,0,0,0,0,0,0],"split_type":[0,0,0,0,0,0,0,0,0,0,0,0,0,0,0,0,0,0,0,0,0,0,0,0,0,0,0,0,0,0,0,0,0,0,0,0,0,0,0,0,0,0,0,0,0,0,0,0,0,0,0,0,0,0,0,0,0,0,0,0,0,0,0,0,0,0,0,0,0,0,0,0,0,0,0,0,0,0,0,0,0,0,0,0,0,0,0,0,0,0,0,0,0,0,0,0,0,0,0,0,0,0,0],"sum_hessian":[8.4465234E4,3.796037E4,4.650486E4,4.1488416E2,3.754549E4,3.8565227E4,7.9396353E3,3.7382848E4,1.6264069E2,3.769599E4,8.692395E2,2.340825E3,5.59881E3,3.7256305E4,1.26541954E2,3.6076645E4,1.6193435E3,6.430317E2,2.2620782E2,2.072127E3,2.6869815E2,4.702315E3,8.9649524E2,3.397924E4,3.277067E3,6.244986E3,2.9831658E4,6.5186914E2,9.674743E2,5.6577576E1,5.864541E2,1.9855317E3,8.6595146E1,4.0464985E3,6.558163E2,7.084735E2,1.880217E2,1.6643665E2,3.38128E4,1.1870687E2,3.15836E3,2.0214833E3,4.2235024E3,2.9220965E4,6.1069226E2,5.2594063E1,5.992751E2,4.2529904E2,1.6115506E2,4.1395252E1,1.9441365E3,3.871123E3,1.753755E2,4.784245E2,1.7739177E2,5.532971E2,1.5517639E2,1.4599193E2,3.366681E4,3.0943206E3,6.4039604E1,1.3407643E3,6.807189E2,4.064601E3,1.5890138E2,2.7481854E4,1.739112E3,1.7461464E2,4.3607764E2,4.3389438E2,1.653807E2,1.4154112E2,2.837579E2,1.4341237E3,5.1001282E2,1.9417595E2,3.676947E3,3.6314533E1,1.3906097E2,4.380587E2,4.036581E1,3.3523707E4,1.4310269E2,9.563538E2,2.1379666E3,1.0605778E3,2.8018658E2,2.113535E2,1.5277587E3,3.2436783E1,1.4217786E2,1.4609685E2,2.8779752E2,1.5390555E2,1.2802181E3,4.5463354E2,5.537928E1,1.4495428E2,4.9221672E1,2.2143921E2,3.4555078E3,1.4827925E2,2.8977945E2],"tree_param":{"num_deleted":"0","num_feature":"30","num_nodes":"103","size_leaf_vector":"1"}},{"base_weights":[7.0671225E-3,1.4932867E0,-1.1198115E0,1.5406361E0,-9.359387E-1,1.5690243E-1,-1.2079933E0,1.5604589E0,-4.8651084E-2,-4.8074245E-2,4.148486E-2,9.637218E-1,-1.2259276E0,-1.2665229E0,1.8481487E-1,-4.9129356E-2,1.566676E0,1.143712E0,-4.9081095E-2,-4.8583057E-2,4.198185E-2,-1.3460591E0,-6.0134757E-1,1.0548148E0,-4.8476614E-2,1.5701429E0,-5.1039368E-2,1.2716974E0,-4.8627574E-2,-1.3681738E0,9.601699E-1,-1.4178332E0,5.12558E-1,1.3444016E0,-4.8514508E-2,1.5799552E0,1.2200158E0,1.3405524E0,-4.9716573E-2,-1.4297279E0,-6.39463E-1,1.5845473E0,-4.8009977E-2,-4.7990575E-2,6.97314E-1,-4.87476E-2,9.407415E-1,1.5078462E0,-5.0012883E-2,1.5825115E0,3.203237E-2,1.4966426E0,-5.0368354E-2,-4.9691636E-2,1.4099835E0,-1.1788161E0,-1.5362794E0,-4.80923E-2,1.7342119E-1,5.3648744E-2,4.1560777E-2,5.1655535E-2,-4.8677996E-2,-5.088343E-2,1.2170062E0,1.679837E0,7.645362E-1,4.7540355E-2,4.2642444E-2,3.2027956E-2,4.810427E-2,1.9146737E-2,4.542865E-2,-4.7799107E-2,-2.2429667E-2,-4.662888E-2,9.531554E-3,-2.8063312E-2,3.064392E-2,4.203221E-2,-4.9217947E-2,5.434483E-2,4.8323933E-2,-5.132318E-2,4.43354E-2],"categories":[],"categories_nodes":[],"categories_segments":[],"categories_sizes":[],"default_left":[0,0,0,0,0,0,0,0,0,0,0,0,0,0,0,0,0,0,0,0,0,0,0,0,0,0,0,0,0,0,0,0,0,0,0,0,0,0,0,0,0,0,0,0,0,0,0,0,0,0,0,0,0,0,0,0,0,0,0,0,0,0,0,0,0,0,0,0,0,0,0,0,0,0,0,0,0,0,0,0,0,0,0,0,0],"id":10,"left_children":[1,3,5,7,9,11,13,15,-1,-1,-1,17,19,21,23,-1,25,27,-1,-1,-1,29,31,33,-1,35,-1,37,-1,39,41,43,45,47,-1,49,51,53,-1,55,57,59,-1,-1,61,-1,63,65,-1,67,-1,69,-1,-1,71,73,75,-1,77,-1,-1,-1,-1,-1,79,81,83,-1,-1,-1,-1,-1,-1,-1,-1,-1,-1,-1,-1,-1,-1,-1,-1,-1,-1],"loss_changes":[1.386643E5,4.1069297E3,5.301574E3,2.1955469E3,1.0552129E3,3.3944617E3,3.590832E3,6.9214844E2,0E0,0E0,0E0,8.991853E2,1.1582711E3,2.2363672E3,2.7830454E3,0E0,3.9370312E2,6.3595605E2,0E0,0E0,0E0,1.9257266E3,4.106161E3,9.269094E2,0E0,1.19109375E2,0E0,3.464978E2,0E0,1.6774688E3,5.7351624E2,1.00213574E3,1.7478297E3,5.3205896E2,0E0,4.409375E1,7.5890576E2,3.493108E2,0E0,9.218594E2,2.2818413E3,1.156958E1,0E0,0E0,4.9046808E2,0E0,1.1590773E3,1.30979E2,0E0,1.1609375E1,0E0,3.9500244E1,0E0,0E0,1.3197754E2,1.8369912E3,8.085703E2,0E0,1.4859833E3,0E0,0E0,0E0,0E0,0E0,7.576106E2,7.4089355E0,3.4040875E2,0E0,0E0,0E0,0E0,0E0,0E0,0E0,0E0,0E0,0E0,0E0,0E0,0E0,0E0,0E0,0E0,0E0,0E0],"parents":[2147483647,0,0,1,1,2,2,3,3,4,4,5,5,6,6,7,7,11,11,12,12,13,13,14,14,16,16,17,17,21,21,22,22,23,23,25,25,27,27,29,29,30,30,31,31,32,32,33,33,35,35,36,36,37,37,39,39,40,40,41,41,44,44,46,46,47,47,49,49,51,51,54,54,55,55,56,56,58,58,64,64,65,65,66,66],"right_children":[2,4,6,8,10,12,14,16,-1,-1,-1,18,20,22,24,-1,26,28,-1,-1,-1,30,32,34,-1,36,-1,38,-1,40,42,44,46,48,-1,50,52,54,-1,56,58,60,-1,-1,62,-1,64,66,-1,68,-1,70,-1,-1,72,74,76,-1,78,-1,-1,-1,-1,-1,80,82,84,-1,-1,-1,-1,-1,-1,-1,-1,-1,-1,-1,-1,-1,-1,-1,-1,-1,-1],"split_conditions":[-1.6038146E0,-1.5736994E-1,-1.1345708E0,5.086516E-1,1.4213088E0,-3.3809364E-1,1.8963393E0,-8.086045E-1,-4.8651084E-2,-4.8074245E-2,4.148486E-2,4.0215147E-1,1.2027014E0,1.1024256E0,2.9493412E-2,-4.9129356E-2,4.2060847E0,1.2036215E0,-4.9081095E-2,-4.8583057E-2,4.198185E-2,1.7877798E0,6.388282E-1,-2.3389666E-1,-4.8476614E-2,-4.037737E-1,-5.1039368E-2,1.223073E0,-4.8627574E-2,2.7929E2,-6.673734E-1,1.4769434E0,-4.3031695E-1,4.071249E-2,-4.8514508E-2,-1.7706742E0,-2.4745004E-1,-1.235348E0,-4.9716573E-2,5.8378E4,2.1412216E-1,-2.1150475E0,-4.8009977E-2,-4.7990575E-2,-1.56027E0,-4.87476E-2,-4.6959296E-1,-7.3462737E-1,-5.0012883E-2,-2.0239606E0,3.203237E-2,-1.4746268E-1,-5.0368354E-2,-4.9691636E-2,-1.5211424E-1,-9.052602E-2,1.4088022E0,-4.80923E-2,-2.8443056E-1,5.3648744E-2,4.1560777E-2,5.1655535E-2,-4.8677996E-2,-5.088343E-2,4.312114E-2,6.1948E4,6.4426035E-1,4.7540355E-2,4.2642444E-2,3.2027956E-2,4.810427E-2,1.9146737E-2,4.542865E-2,-4.7799107E-2,-2.2429667E-2,-4.662888E-2,9.531554E-3,-2.8063312E-2,3.064392E-2,4.203221E-2,-4.9217947E-2,5.434483E-2,4.8323933E-2,-5.132318E-2,4.43354E-2],"split_indices":[10,3,8,12,22,12,11,11,0,0,0,25,26,18,13,0,7,3,0,0,0,22,5,9,0,12,0,13,0,29,8,11,1,27,0,10,26,9,0,0,18,13,0,0,13,0,24,12,0,10,0,1,0,0,18,5,26,0,5,0,0,0,0,0,27,0,12,0,0,0,0,0,0,0,0,0,0,0,0,0,0,0,0,0,0],"split_type":[0,0,0,0,0,0,0,0,0,0,0,0,0,0,0,0,0,0,0,0,0,0,0,0,0,0,0,0,0,0,0,0,0,0,0,0,0,0,0,0,0,0,0,0,0,0,0,0,0,0,0,0,0,0,0,0,0,0,0,0,0,0,0,0,0,0,0,0,0,0,0,0,0,0,0,0,0,0,0,0,0,0,0,0,0],"sum_hessian":[8.2794984E4,3.5704695E4,4.7090285E4,3.5022082E4,6.82615E2,3.0423555E3,4.404793E4,3.480394E4,2.1813805E2,5.3021875E2,1.5239626E2,1.9213501E3,1.1210054E3,4.2271566E4,1.776363E3,6.750002E1,3.473644E4,1.7969698E3,1.24380264E2,9.748991E2,1.461063E2,3.775686E4,4.514709E3,1.1977153E3,5.7864777E2,3.469966E4,3.6783577E1,1.7174897E3,7.948014E1,3.739826E4,3.5859552E2,2.6051418E3,1.9095671E3,1.0806244E3,1.1709096E2,3.375353E4,9.461261E2,1.6780697E3,3.9420067E1,3.4485246E4,2.9130159E3,2.883114E2,7.0284096E1,2.3989058E3,2.0623607E2,3.1866272E2,1.5909044E3,1.0250198E3,5.560458E1,3.3585797E4,1.6773427E2,8.637324E2,8.239369E1,3.7968243E1,1.6401014E3,1.027944E4,2.4205807E4,1.3329044E3,1.5801113E3,1.4231342E2,1.45998E2,1.4306746E2,6.3168617E1,1.508466E2,1.4400577E3,8.3235693E2,1.926628E2,3.313955E4,4.4624683E2,1.7231267E2,6.9141974E2,1.9531717E2,1.4447843E3,5.2409824E3,5.038458E3,2.3972855E4,2.3295186E2,6.8475244E2,8.953589E2,1.3529381E3,8.711966E1,2.8586203E2,5.4649493E2,4.308282E1,1.4957997E2],"tree_param":{"num_deleted":"0","num_feature":"30","num_nodes":"85","size_leaf_vector":"1"}},{"base_weights":[2.4273722E-2,1.4601089E0,-1.1602867E0,-4.7436405E-2,1.4838841E0,-1.3664633E0,4.3503124E-2,1.5548244E0,8.633269E-1,-7.6476675E-1,-1.4448311E0,6.5098983E-1,-1.0040464E0,3.4348056E-2,1.5567361E0,1.0252136E0,-4.945884E-2,-8.921012E-2,-1.3884187E0,3.84741E-2,-1.4576095E0,1.0986242E0,-4.70836E-1,-4.7218774E-2,3.5003152E-1,4.673177E-2,1.4402117E0,1.4065818E0,8.5234985E-2,7.534884E-1,-1.0921372E0,-4.7404695E-2,3.5102773E-2,-1.0759066E0,-1.5037754E0,1.2223428E0,-4.791411E-2,9.840319E-1,-4.7405206E-2,1.0640062E0,-4.7267366E-2,3.8921233E-2,4.7782253E-2,-4.9091738E-2,1.462401E0,7.0247346E-1,-5.0719343E-2,-4.764839E-2,1.2448756E0,-4.7653507E-2,5.1146377E-2,4.4361705E-1,-1.2883275E0,-1.518816E0,5.926899E-3,1.2957592E0,-4.85891E-2,-4.823905E-2,1.4906942E0,-4.7449257E-2,1.5412288E0,1.0900514E0,1.5616848E0,-4.8933376E-2,1.1590134E0,-4.810598E-2,1.5020494E0,1.3844593E0,-4.83361E-2,1.0406893E0,-1.4247737E0,-1.5332817E0,-2.0970935E-1,-4.758156E-2,4.7486417E-2,1.344075E0,-5.097585E-2,5.0530042E-2,3.406818E-2,1.3183129E0,6.0120963E-2,4.4496145E-2,-5.386295E-2,3.6205336E-2,4.7761384E-2,-4.9549013E-2,4.5576878E-2,4.877823E-2,3.0128649E-2,3.336588E-2,5.1259186E-2,5.010818E-2,-4.7025517E-2,-4.723659E-2,5.5688536E-3,-4.7024563E-2,-4.0749367E-2,4.5734372E-2,-4.7070734E-2,3.0702587E-2,4.6329718E-2,4.909241E-2,3.1409524E-2],"categories":[],"categories_nodes":[],"categories_segments":[],"categories_sizes":[],"default_left":[0,0,0,0,0,0,0,0,0,0,0,0,0,0,0,0,0,0,0,0,0,0,0,0,0,0,0,0,0,0,0,0,0,0,0,0,0,0,0,0,0,0,0,0,0,0,0,0,0,0,0,0,0,0,0,0,0,0,0,0,0,0,0,0,0,0,0,0,0,0,0,0,0,0,0,0,0,0,0,0,0,0,0,0,0,0,0,0,0,0,0,0,0,0,0,0,0,0,0,0,0,0,0],"id":11,"left_children":[1,3,5,-1,7,9,11,13,15,17,19,21,23,-1,25,27,-1,29,31,-1,33,35,37,-1,39,-1,41,43,45,47,49,-1,-1,51,53,55,-1,57,-1,59,-1,-1,-1,-1,61,63,-1,-1,65,-1,-1,67,69,71,73,75,-1,-1,77,-1,79,81,83,-1,85,-1,87,89,-1,91,93,95,97,-1,-1,99,-1,-1,-1,101,-1,-1,-1,-1,-1,-1,-1,-1,-1,-1,-1,-1,-1,-1,-1,-1,-1,-1,-1,-1,-1,-1,-1],"loss_changes":[1.4058864E5,2.702E3,1.1241289E4,0E0,1.6321172E3,1.8233359E3,4.214782E3,2.5976562E1,1.5468977E3,1.8774556E3,1.1924609E3,2.1051604E3,1.8760828E3,0E0,3.6953125E0,1.2810144E3,0E0,1.8079833E3,1.1367949E3,0E0,6E2,9.9947046E2,1.9298499E3,0E0,9.901838E2,0E0,5.9804688E0,4.3192236E2,1.1306718E3,1.3377717E3,1.3560574E3,0E0,0E0,1.1860776E3,6.898203E2,5.9788916E2,0E0,6.7950433E2,0E0,6.6347284E2,0E0,0E0,0E0,0E0,9.219385E1,8.155923E2,0E0,0E0,7.040056E2,0E0,0E0,8.714637E2,1.0245659E3,5.6960156E2,7.5259576E2,4.0426367E2,0E0,0E0,2.965326E1,0E0,4.5780396E1,5.9650055E2,2.112793E1,0E0,6.483321E2,0E0,5.4262573E1,2.7187317E1,0E0,2.931668E2,7.345913E2,1.7792969E2,7.752343E2,0E0,0E0,1.7640332E2,0E0,0E0,0E0,2.5851196E1,0E0,0E0,0E0,0E0,0E0,0E0,0E0,0E0,0E0,0E0,0E0,0E0,0E0,0E0,0E0,0E0,0E0,0E0,0E0,0E0,0E0,0E0,0E0],"parents":[2147483647,0,0,1,1,2,2,4,4,5,5,6,6,7,7,8,8,9,9,10,10,11,11,12,12,14,14,15,15,17,17,18,18,20,20,21,21,22,22,24,24,26,26,27,27,28,28,29,29,30,30,33,33,34,34,35,35,37,37,39,39,44,44,45,45,48,48,51,51,52,52,53,53,54,54,55,55,58,58,60,60,61,61,62,62,64,64,66,66,67,67,69,69,70,70,71,71,72,72,75,75,79,79],"right_children":[2,4,6,-1,8,10,12,14,16,18,20,22,24,-1,26,28,-1,30,32,-1,34,36,38,-1,40,-1,42,44,46,48,50,-1,-1,52,54,56,-1,58,-1,60,-1,-1,-1,-1,62,64,-1,-1,66,-1,-1,68,70,72,74,76,-1,-1,78,-1,80,82,84,-1,86,-1,88,90,-1,92,94,96,98,-1,-1,100,-1,-1,-1,102,-1,-1,-1,-1,-1,-1,-1,-1,-1,-1,-1,-1,-1,-1,-1,-1,-1,-1,-1,-1,-1,-1,-1],"split_conditions":[-1.7862202E0,-7.627984E-1,1.6173303E0,-4.7436405E-2,-1.4177446E0,-4.6532857E-1,-2.32212E-1,9.082118E-2,4.762528E-1,-1.9769345E-1,-1.6078086E0,1.3905992E-3,9.731604E-1,3.4348056E-2,-2.6386878E0,-2.893668E-3,-4.945884E-2,-3.7901077E-2,1.9816676E0,3.84741E-2,-8.7784344E-1,1.0429915E0,-9.347488E-2,-4.7218774E-2,-1.5634464E-1,4.673177E-2,3.534466E0,6.6170454E-1,7.8696895E-1,2.1188763E-1,2.1237695E0,-4.7404695E-2,3.5102773E-2,-1.0721478E0,2.007892E0,1.1953737E0,-4.791411E-2,4.9922943E-1,-4.7405206E-2,-1.09829724E-1,-4.7267366E-2,3.8921233E-2,4.7782253E-2,-4.9091738E-2,1.0786717E0,-1.1779724E0,-5.0719343E-2,-4.764839E-2,5.492512E-2,-4.7653507E-2,5.1146377E-2,-4.1472933E-1,-6.5666413E-1,2.2131493E0,1.3927276E0,5.5364496E-1,-4.85891E-2,-4.823905E-2,-1.5215603E0,-4.7449257E-2,-1.599127E-1,-1.9132616E-1,-2.2752556E-1,-4.8933376E-2,1.4632329E0,-4.810598E-2,-6.9691464E-2,-4.2561373E-1,-4.83361E-2,-3.116736E-1,7.5936776E-1,9.075352E-1,-1.0436897E0,-4.758156E-2,4.7486417E-2,1.3784377E-1,-5.097585E-2,5.0530042E-2,3.406818E-2,-1.4826494E0,6.0120963E-2,4.4496145E-2,-5.386295E-2,3.6205336E-2,4.7761384E-2,-4.9549013E-2,4.5576878E-2,4.877823E-2,3.0128649E-2,3.336588E-2,5.1259186E-2,5.010818E-2,-4.7025517E-2,-4.723659E-2,5.5688536E-3,-4.7024563E-2,-4.0749367E-2,4.5734372E-2,-4.7070734E-2,3.0702587E-2,4.6329718E-2,4.909241E-2,3.1409524E-2],"split_indices":[14,4,4,0,12,8,12,11,26,26,17,8,12,0,14,15,0,2,17,0,19,14,6,0,21,0,2,17,5,14,1,0,0,14,15,1,0,11,0,26,0,0,0,0,18,6,0,0,19,0,0,12,21,11,4,25,0,0,19,0,21,25,25,0,17,0,25,12,0,8,23,15,14,0,0,11,0,0,0,14,0,0,0,0,0,0,0,0,0,0,0,0,0,0,0,0,0,0,0,0,0,0,0],"split_type":[0,0,0,0,0,0,0,0,0,0,0,0,0,0,0,0,0,0,0,0,0,0,0,0,0,0,0,0,0,0,0,0,0,0,0,0,0,0,0,0,0,0,0,0,0,0,0,0,0,0,0,0,0,0,0,0,0,0,0,0,0,0,0,0,0,0,0,0,0,0,0,0,0,0,0,0,0,0,0,0,0,0,0,0,0,0,0,0,0,0,0,0,0,0,0,0,0,0,0,0,0,0,0],"sum_hessian":[8.265856E4,3.7366133E4,4.5292434E4,2.8981216E2,3.707632E4,3.8669406E4,6.623028E3,3.3272613E4,3.8037085E3,4.456171E3,3.4213234E4,4.1920356E3,2.430992E3,1.5461575E2,3.3117996E4,3.5734443E3,2.3026407E2,2.1391008E3,2.3170703E3,1.5952954E2,3.4053703E4,2.9964028E3,1.1956329E3,1.7108923E3,7.2009955E2,3.283845E4,2.7954782E2,2.542055E3,1.0313896E3,1.162411E3,9.766898E2,2.1555513E3,1.6151897E2,3.6744353E3,3.037927E4,2.864949E3,1.3145383E2,5.1726245E2,6.783704E2,5.2533923E2,1.9476035E2,1.4462506E2,1.3492278E2,4.576316E1,2.4962917E3,7.653954E2,2.659942E2,2.0158966E2,9.6082135E2,8.2951996E2,1.4716988E2,4.5065787E2,3.2237773E3,3.0079594E4,2.9967435E2,2.7928315E3,7.2117386E1,8.455845E1,4.32704E2,8.026086E1,4.4507837E2,5.256315E2,1.9706602E3,1.2521669E2,6.401787E2,7.9542496E1,8.812789E2,3.0913263E2,1.4152525E2,1.7839383E2,3.0453835E3,2.975084E4,3.287557E2,1.4912659E2,1.5054778E2,2.748521E3,4.4310555E1,2.7987695E2,1.5282704E2,3.0053064E2,1.4454773E2,4.6262408E2,6.3007404E1,1.5549844E2,1.8151617E3,7.270356E1,5.6747516E2,7.055477E2,1.7573112E2,1.6815004E2,1.4098259E2,1.4372101E2,3.467282E1,2.7862432E3,2.5914035E2,2.4885654E4,4.865185E3,1.4445554E2,1.8430017E2,1.0567283E3,1.6917928E3,1.3821693E2,1.623137E2],"tree_param":{"num_deleted":"0","num_feature":"30","num_nodes":"103","size_leaf_vector":"1"}},{"base_weights":[4.2472508E-2,1.4462953E0,-1.0360719E0,1.4904833E0,-9.020963E-1,1.3675184E0,-1.1054348E0,-4.7108673E-2,1.5028188E0,-4.6516605E-2,4.3895077E-2,1.5078692E0,-4.722859E-2,-1.2627317E0,1.20581515E-1,8.820961E-1,1.5227476E0,-4.8081044E-2,1.6000535E0,-4.862782E-1,-1.3544966E0,-4.6719935E-2,5.590396E-1,-4.8459314E-2,1.3561691E0,1.5260942E0,8.7430924E-1,5.0429657E-2,4.596256E-2,-1.3122964E0,1.7433326E-1,-5.674937E-1,-1.4290799E0,7.857121E-1,-4.751138E-2,1.5139599E0,-4.91246E-2,1.5302918E0,1.4156116E0,4.8419353E-2,-5.1424503E-2,6.96326E-1,-4.6556868E-2,-6.0236627E-1,1.3524975E0,-4.6678964E-2,1.6487361E-1,-1.441327E0,1.7049827E-1,9.0735793E-1,-4.8744988E-2,1.6035713E0,3.295967E-2,4.1158833E-2,4.592881E-2,1.4793516E0,2.9411316E-2,-4.6789005E-2,4.840979E-2,1.1248199E0,-4.6847437E-2,-4.7051873E-2,1.5130117E0,8.499159E-1,-4.7133405E-2,-1.4546136E0,5.9066918E-2,-4.6936743E-2,4.7898244E-2,9.84262E-1,-4.885177E-2,4.0808067E-2,5.0072096E-2,4.562513E-2,3.6742583E-2,4.4262964E-2,-4.6489675E-2,4.2431585E-2,6.0208093E-2,-4.766196E-2,3.3599265E-2,-2.1729024E-2,-4.4424172E-2,-4.685264E-2,4.3865714E-2,2.0937134E-4,3.502927E-2],"categories":[],"categories_nodes":[],"categories_segments":[],"categories_sizes":[],"default_left":[0,0,0,0,0,0,0,0,0,0,0,0,0,0,0,0,0,0,0,0,0,0,0,0,0,0,0,0,0,0,0,0,0,0,0,0,0,0,0,0,0,0,0,0,0,0,0,0,0,0,0,0,0,0,0,0,0,0,0,0,0,0,0,0,0,0,0,0,0,0,0,0,0,0,0,0,0,0,0,0,0,0,0,0,0,0,0],"id":12,"left_children":[1,3,5,7,9,11,13,-1,15,-1,-1,17,-1,19,21,23,25,-1,27,29,31,-1,33,-1,35,37,39,-1,-1,41,43,45,47,49,-1,51,-1,53,55,-1,-1,57,-1,59,61,-1,63,65,67,69,-1,71,-1,-1,-1,73,-1,-1,-1,75,-1,-1,77,79,-1,81,83,-1,-1,85,-1,-1,-1,-1,-1,-1,-1,-1,-1,-1,-1,-1,-1,-1,-1,-1,-1],"loss_changes":[1.2532239E5,3.7319297E3,7.803996E3,1.3328672E3,1.0188833E3,5.422195E2,8.773773E3,0E0,4.3482812E2,0E0,0E0,3.5948096E2,0E0,2.8729688E3,3.8060645E3,1.2950656E3,7.384375E1,0E0,6.557129E0,2.3256238E3,2.1166094E3,0E0,1.9922355E3,0E0,4.3437512E2,1.559375E1,3.3525162E2,0E0,0E0,9.1150195E2,2.167029E3,2.2598628E3,6.4528906E2,1.0877588E3,0E0,3.240515E1,0E0,3.34375E0,3.4352295E1,0E0,0E0,4.1789954E2,0E0,2.3646677E3,4.4126135E2,0E0,2.1325564E3,6.5164844E2,6.19542E2,6.886863E2,0E0,1.132251E1,0E0,0E0,0E0,1.1333008E1,0E0,0E0,0E0,4.7802112E2,0E0,0E0,4.3295166E1,8.4691144E2,0E0,6.197344E2,6.5277893E2,0E0,0E0,6.142041E2,0E0,0E0,0E0,0E0,0E0,0E0,0E0,0E0,0E0,0E0,0E0,0E0,0E0,0E0,0E0,0E0,0E0],"parents":[2147483647,0,0,1,1,2,2,3,3,4,4,5,5,6,6,8,8,11,11,13,13,14,14,15,15,16,16,18,18,19,19,20,20,22,22,24,24,25,25,26,26,29,29,30,30,31,31,32,32,33,33,35,35,37,37,38,38,41,41,43,43,44,44,46,46,47,47,48,48,49,49,51,51,55,55,59,59,62,62,63,63,65,65,66,66,69,69],"right_children":[2,4,6,8,10,12,14,-1,16,-1,-1,18,-1,20,22,24,26,-1,28,30,32,-1,34,-1,36,38,40,-1,-1,42,44,46,48,50,-1,52,-1,54,56,-1,-1,58,-1,60,62,-1,64,66,68,70,-1,72,-1,-1,-1,74,-1,-1,-1,76,-1,-1,78,80,-1,82,84,-1,-1,86,-1,-1,-1,-1,-1,-1,-1,-1,-1,-1,-1,-1,-1,-1,-1,-1,-1],"split_conditions":[-1.6038146E0,-1.5736994E-1,-1.6078086E0,-8.086045E-1,2.1810586E0,6.694196E-1,1.1242766E0,-4.7108673E-2,6.993455E-1,-4.6516605E-2,4.3895077E-2,4.7390437E-1,-4.722859E-2,-1.0688286E0,-1.6660692E-1,1.8345E2,-1.7706742E0,-4.8081044E-2,-1.6989033E0,3.4449735E-1,-6.031734E-1,-4.6719935E-2,4.166313E-1,-4.8459314E-2,8.0064E2,-2.2278914E0,-1.6078086E0,5.0429657E-2,4.596256E-2,-6.5666413E-1,1.1409826E-1,3.294681E-1,1.4088022E0,1.533734E-1,-4.751138E-2,1.4843427E-1,-4.91246E-2,-3.937384E0,-6.3496923E-1,4.8419353E-2,-5.1424503E-2,3.1999E2,-4.6556868E-2,4.230637E-1,1.22773975E-1,-4.6678964E-2,-1.9929005E-1,2.007892E0,1.704801E0,1.2428082E0,-4.8744988E-2,-2.84491E-1,3.295967E-2,4.1158833E-2,4.592881E-2,9.499145E-1,2.9411316E-2,-4.6789005E-2,4.840979E-2,-5.6243175E-1,-4.6847437E-2,-4.7051873E-2,-1.095199E0,-1.745508E-2,-4.7133405E-2,-2.5282385E0,2.7929E2,-4.6936743E-2,4.7898244E-2,-1.0110126E0,-4.885177E-2,4.0808067E-2,5.0072096E-2,4.562513E-2,3.6742583E-2,4.4262964E-2,-4.6489675E-2,4.2431585E-2,6.0208093E-2,-4.766196E-2,3.3599265E-2,-2.1729024E-2,-4.4424172E-2,-4.685264E-2,4.3865714E-2,2.0937134E-4,3.502927E-2],"split_indices":[10,3,17,11,17,9,17,0,11,0,0,11,0,19,18,29,10,0,18,16,8,0,8,0,29,10,17,0,0,21,17,19,26,28,0,16,0,2,6,0,0,29,0,16,5,0,13,15,10,13,0,26,0,0,0,5,0,0,0,17,0,0,19,5,0,3,29,0,0,10,0,0,0,0,0,0,0,0,0,0,0,0,0,0,0,0,0],"split_type":[0,0,0,0,0,0,0,0,0,0,0,0,0,0,0,0,0,0,0,0,0,0,0,0,0,0,0,0,0,0,0,0,0,0,0,0,0,0,0,0,0,0,0,0,0,0,0,0,0,0,0,0,0,0,0,0,0,0,0,0,0,0,0,0,0,0,0,0,0,0,0,0,0,0,0,0,0,0,0,0,0,0,0,0,0,0,0],"sum_hessian":[8.277093E4,3.596249E4,4.6808438E4,3.5298324E4,6.641649E2,1.3128834E3,4.5495555E4,1.416611E2,3.5156664E4,5.2127234E2,1.4289262E2,1.2531241E3,5.9759193E1,4.0322242E4,5.173314E3,1.0936951E3,3.406297E4,3.604303E1,1.2170812E3,4.261829E3,3.606041E4,1.0717502E3,4.101564E3,1.7446863E2,9.192265E2,3.3887996E4,1.7497078E2,5.54964E2,6.621171E2,1.8937992E3,2.3680295E3,3.12161E3,3.29388E4,3.7092158E3,3.923479E2,8.7322675E2,4.5999767E1,3.2646947E4,1.2410487E3,1.3609967E2,3.8871113E1,2.0181653E2,1.6919827E3,1.4271884E3,9.408413E2,1.3284918E3,1.7931182E3,3.2688527E4,2.5027448E2,3.531058E3,1.7815785E2,7.1812146E2,1.5510524E2,1.3771877E2,3.2509229E4,1.0824021E3,1.5864664E2,5.8330105E1,1.4348642E2,5.0959314E2,9.175952E2,4.8984955E1,8.918563E2,1.2857662E3,5.0735202E2,3.24016E4,2.8692725E2,1.1290499E2,1.3736949E2,3.4271526E3,1.03905495E2,1.525664E2,5.6555505E2,9.305103E2,1.5189177E2,4.5055185E2,5.9041294E1,7.435871E2,1.4826924E2,1.2816537E2,1.1576008E3,1.1218792E3,3.127972E4,1.3313266E2,1.5379459E2,5.414857E2,2.8856667E3],"tree_param":{"num_deleted":"0","num_feature":"30","num_nodes":"87","size_leaf_vector":"1"}},{"base_weights":[1.7204242E-2,1.4570204E0,-9.65324E-1,1.4864115E0,-6.1564845E-1,1.3750633E0,-1.0447696E0,1.4952193E0,-4.610537E-2,-4.624668E-2,3.5806876E-2,1.5346094E0,-4.6590023E-2,-1.1992258E0,1.1368176E-1,-4.715685E-2,1.5010554E0,1.5713892E0,3.609714E-2,2.4245587E-1,-1.252722E0,-1.235686E0,6.2018245E-1,1.5054886E0,1.0419849E0,5.0097294E-2,4.5797706E-2,9.571901E-1,-4.6049632E-2,-6.125083E-1,-1.3229173E0,-4.649226E-2,4.491416E-2,1.1112747E0,-4.823347E-1,3.9149165E-2,1.5064576E0,-4.9201198E-2,4.5296017E-2,-4.688331E-2,1.2024425E0,-1.3357178E0,4.391878E-1,-1.3662598E0,-2.652749E-1,-4.9241364E-2,1.2840493E0,-4.8127037E-2,5.3945476E-1,4.792946E-2,1.5056634E0,1.4036756E0,-4.7424354E-2,-4.5811377E-2,3.889797E-1,-4.6194542E-2,9.462121E-1,-1.0072174E0,-1.4256997E0,1.1290771E0,-4.606213E-2,1.3802742E0,-4.7884516E-2,1.0858692E0,-4.6749752E-2,4.5202E-2,3.8044836E-2,4.7065686E-2,2.2312164E-2,-4.6999194E-2,4.492269E-2,-4.6349633E-2,3.5679396E-2,-9.500687E-4,-4.1479494E-2,-4.3181036E-2,6.3289055E-3,4.7241658E-2,-4.613422E-2,4.312689E-2,-5.307821E-2,4.327819E-2,-5.0127503E-2],"categories":[],"categories_nodes":[],"categories_segments":[],"categories_sizes":[],"default_left":[0,0,0,0,0,0,0,0,0,0,0,0,0,0,0,0,0,0,0,0,0,0,0,0,0,0,0,0,0,0,0,0,0,0,0,0,0,0,0,0,0,0,0,0,0,0,0,0,0,0,0,0,0,0,0,0,0,0,0,0,0,0,0,0,0,0,0,0,0,0,0,0,0,0,0,0,0,0,0,0,0,0,0],"id":13,"left_children":[1,3,5,7,9,11,13,15,-1,-1,-1,17,-1,19,21,-1,23,25,-1,27,29,31,33,35,37,-1,-1,39,-1,41,43,-1,-1,45,47,-1,49,-1,-1,-1,51,53,55,57,59,-1,61,-1,63,-1,65,67,-1,-1,69,-1,71,73,75,77,-1,79,-1,81,-1,-1,-1,-1,-1,-1,-1,-1,-1,-1,-1,-1,-1,-1,-1,-1,-1,-1,-1],"loss_changes":[1.1332958E5,1.9795078E3,8.853691E3,8.5328906E2,7.612388E2,7.304607E2,8.240395E3,5.7196094E2,0E0,0E0,0E0,1.796753E1,0E0,3.134043E3,3.7030105E3,0E0,6.48125E1,5.751953E0,0E0,1.8471915E3,1.7607852E3,1.2692275E3,2.1329521E3,6.03125E0,3.8305563E2,0E0,0E0,6.4100336E2,0E0,2.9447983E3,1.618625E3,0E0,0E0,1.2962908E3,1.3917188E3,0E0,2.140625E0,0E0,0E0,0E0,5.294353E2,7.5704956E2,1.5830476E3,7.2383594E2,2.462013E3,0E0,7.108584E2,0E0,7.2841284E2,0E0,7.8203125E0,9.601477E1,0E0,0E0,4.9679944E2,0E0,7.6067786E2,1.7646401E3,6.5103906E2,7.8772394E2,0E0,4.4790234E2,0E0,4.9590692E2,0E0,0E0,0E0,0E0,0E0,0E0,0E0,0E0,0E0,0E0,0E0,0E0,0E0,0E0,0E0,0E0,0E0,0E0,0E0],"parents":[2147483647,0,0,1,1,2,2,3,3,4,4,5,5,6,6,7,7,11,11,13,13,14,14,16,16,17,17,19,19,20,20,21,21,22,22,23,23,24,24,27,27,29,29,30,30,33,33,34,34,36,36,40,40,41,41,42,42,43,43,44,44,46,46,48,48,50,50,51,51,54,54,56,56,57,57,58,58,59,59,61,61,63,63],"right_children":[2,4,6,8,10,12,14,16,-1,-1,-1,18,-1,20,22,-1,24,26,-1,28,30,32,34,36,38,-1,-1,40,-1,42,44,-1,-1,46,48,-1,50,-1,-1,-1,52,54,56,58,60,-1,62,-1,64,-1,66,68,-1,-1,70,-1,72,74,76,78,-1,80,-1,82,-1,-1,-1,-1,-1,-1,-1,-1,-1,-1,-1,-1,-1,-1,-1,-1,-1,-1,-1],"split_conditions":[-1.8896455E0,3.1494352E-1,-1.6078086E0,1.2646915E0,2.1810586E0,-8.598528E-1,1.1242766E0,-4.4937414E-1,-4.610537E-2,-4.624668E-2,3.5806876E-2,-2.2769873E0,-4.6590023E-2,-9.881263E-1,6.613875E-2,-4.715685E-2,-3.0763566E-1,6.1948E4,3.609714E-2,-6.870232E-2,-1.0688286E0,2.1237695E0,-4.5457175E-1,1.3784377E-1,9.103585E-1,5.0097294E-2,4.5797706E-2,-9.052602E-2,-4.6049632E-2,7.389196E-1,5.0856E2,-4.649226E-2,4.491416E-2,-1.4313093E0,-3.226973E-1,3.9149165E-2,1.628699E-1,-4.9201198E-2,4.5296017E-2,-4.688331E-2,8.5491884E-1,7.5936776E-1,-8.912312E-1,1.53E0,-5.3680897E-1,-4.9241364E-2,4.166313E-1,-4.8127037E-2,1.4812967E-1,4.792946E-2,-2.0239606E0,5.3173816E-1,-4.7424354E-2,-4.5811377E-2,1.2401906E0,-4.6194542E-2,3.719729E-1,-4.320598E-1,1.4088022E0,-4.6532857E-1,-4.606213E-2,5.5364496E-1,-4.7884516E-2,5.6474973E-2,-4.6749752E-2,4.5202E-2,3.8044836E-2,4.7065686E-2,2.2312164E-2,-4.6999194E-2,4.492269E-2,-4.6349633E-2,3.5679396E-2,-9.500687E-4,-4.1479494E-2,-4.3181036E-2,6.3289055E-3,4.7241658E-2,-4.613422E-2,4.312689E-2,-5.307821E-2,4.327819E-2,-5.0127503E-2],"split_indices":[10,12,17,9,17,12,17,11,0,0,0,12,0,20,16,0,12,0,0,12,19,1,19,11,1,0,0,5,0,2,29,0,0,6,6,0,11,0,0,0,23,23,1,29,26,0,8,0,8,0,10,10,0,0,11,0,16,24,26,8,0,25,0,2,0,0,0,0,0,0,0,0,0,0,0,0,0,0,0,0,0,0,0],"split_type":[0,0,0,0,0,0,0,0,0,0,0,0,0,0,0,0,0,0,0,0,0,0,0,0,0,0,0,0,0,0,0,0,0,0,0,0,0,0,0,0,0,0,0,0,0,0,0,0,0,0,0,0,0,0,0,0,0,0,0,0,0,0,0,0,0,0,0,0,0,0,0,0,0,0,0,0,0,0,0,0,0,0,0],"sum_hessian":[8.011071E4,3.2493734E4,4.761698E4,3.203942E4,4.543139E2,1.5632869E3,4.6053695E4,3.1946375E4,9.304468E1,3.0052228E2,1.5379163E2,1.4825314E3,8.0755486E1,4.063574E4,5.4179556E3,6.064378E1,3.188573E4,1.3342393E3,1.4829208E2,1.4539077E3,3.9181832E4,1.4786388E3,3.9393167E3,3.1580637E4,3.0509467E2,4.1644827E2,9.177911E2,1.0369578E3,4.1694995E2,3.8716003E3,3.531023E4,1.3262496E3,1.5238922E2,2.7253628E3,1.2139539E3,1.5222264E2,3.1428414E4,4.5298275E1,2.597964E2,9.194405E1,9.450137E2,2.2940552E3,1.5775449E3,3.392016E4,1.3900701E3,1.6093173E2,2.5644312E3,5.7861646E2,6.353374E2,2.7041675E2,3.1157998E4,8.8131976E2,6.369392E1,2.064984E3,2.290714E2,3.2171695E2,1.255828E3,4.8180503E3,2.910211E4,6.626342E2,7.274359E2,2.4815525E3,8.2878525E1,5.040675E2,1.312699E2,3.1017982E4,1.4001494E2,7.0482855E2,1.7649121E2,8.2859924E1,1.4621147E2,1.1162748E2,1.1442006E3,1.3389338E3,3.4791165E3,2.886109E4,2.4101982E2,5.677786E2,9.4855576E1,2.4372495E3,4.430311E1,4.4633585E2,5.773167E1],"tree_param":{"num_deleted":"0","num_feature":"30","num_nodes":"83","size_leaf_vector":"1"}},{"base_weights":[7.904365E-3,1.3987123E0,-1.0419341E0,1.4431845E0,-8.745366E-1,-1.1622256E0,4.4899806E-1,1.4621919E0,-4.6022087E-2,-4.5088653E-2,4.247052E-2,1.1927992E0,-1.2132527E0,8.2946163E-1,-4.5938E-2,-4.591663E-2,1.4682868E0,1.5281628E0,-4.6352856E-2,-1.3055701E0,-5.2440286E-1,1.1714311E0,-2.8034228E-1,1.4715923E0,-4.8720937E-2,4.867766E-2,4.432981E-2,-1.3271114E0,1.0129794E0,-1.0429011E-1,-1.2551929E0,1.2903208E0,-4.8920505E-2,-4.7347367E-2,1.1473753E0,1.4805039E0,1.1017724E0,-1.4232855E0,-8.690953E-1,-4.5285024E-2,1.4257476E0,3.927496E-1,-1.1113751E0,4.245162E-1,-4.5377325E-2,1.3686005E0,-4.9646936E-2,-4.999618E-2,1.5336355E0,1.4848306E0,1.164608E0,1.4011283E0,-4.7468822E-2,-5.2855265E-1,-1.4520459E0,-1.377038E0,-2.0815928E-1,3.620323E-2,4.968964E-2,-5.2365285E-1,9.7884E-1,4.367086E-2,-4.5823082E-2,-4.5685694E-2,4.739927E-2,1.4208475E0,-5.0056677E-2,4.112314E-2,5.07904E-2,4.4573653E-2,3.7960432E-2,4.5473102E-2,-5.236356E-2,3.0903732E-2,4.5470454E-2,3.0748457E-2,-4.5386143E-2,-4.39855E-2,3.8016825E-3,-4.5311883E-2,2.3293674E-2,-3.42967E-2,1.4347704E-2,3.383697E-2,-4.553775E-2,4.0927324E-2,-4.5826554E-2,4.4826236E-2,3.19071E-2],"categories":[],"categories_nodes":[],"categories_segments":[],"categories_sizes":[],"default_left":[0,0,0,0,0,0,0,0,0,0,0,0,0,0,0,0,0,0,0,0,0,0,0,0,0,0,0,0,0,0,0,0,0,0,0,0,0,0,0,0,0,0,0,0,0,0,0,0,0,0,0,0,0,0,0,0,0,0,0,0,0,0,0,0,0,0,0,0,0,0,0,0,0,0,0,0,0,0,0,0,0,0,0,0,0,0,0,0,0],"id":14,"left_children":[1,3,5,7,9,11,13,15,-1,-1,-1,17,19,21,-1,-1,23,25,-1,27,29,31,33,35,-1,-1,-1,37,39,41,43,45,-1,-1,47,49,51,53,55,-1,57,59,61,63,-1,65,-1,-1,67,69,71,73,-1,75,77,79,81,-1,-1,83,85,-1,-1,-1,-1,87,-1,-1,-1,-1,-1,-1,-1,-1,-1,-1,-1,-1,-1,-1,-1,-1,-1,-1,-1,-1,-1,-1,-1],"loss_changes":[1.1515029E5,3.4295625E3,8.0599414E3,1.8829688E3,9.3696326E2,4.997383E3,2.5279592E3,6.0316406E2,0E0,0E0,0E0,8.099331E2,2.5884102E3,1.0681821E3,0E0,0E0,3.3739062E2,3.61792E0,0E0,1.7927266E3,1.4768451E3,7.1689087E2,1.2286853E3,1.0853125E2,0E0,0E0,0E0,1.566457E3,3.4416718E2,1.5289905E3,7.591736E2,4.759834E2,0E0,0E0,3.4332553E2,4.3898438E1,6.2340857E2,7.5627344E2,2.0719282E3,0E0,1.4231323E1,1.0984832E3,1.078195E3,5.252012E2,0E0,3.19177E2,0E0,0E0,7.0824585E0,6.578125E0,4.4477057E2,2.9577393E1,0E0,1.3998754E3,6.3558203E2,1.0022661E3,1.7214546E3,0E0,0E0,1.3101797E3,1.2050853E3,0E0,0E0,0E0,0E0,5.1722168E1,0E0,0E0,0E0,0E0,0E0,0E0,0E0,0E0,0E0,0E0,0E0,0E0,0E0,0E0,0E0,0E0,0E0,0E0,0E0,0E0,0E0,0E0,0E0],"parents":[2147483647,0,0,1,1,2,2,3,3,4,4,5,5,6,6,7,7,11,11,12,12,13,13,16,16,17,17,19,19,20,20,21,21,22,22,23,23,27,27,28,28,29,29,30,30,31,31,34,34,35,35,36,36,37,37,38,38,40,40,41,41,42,42,43,43,45,45,48,48,49,49,50,50,51,51,53,53,54,54,55,55,56,56,59,59,60,60,65,65],"right_children":[2,4,6,8,10,12,14,16,-1,-1,-1,18,20,22,-1,-1,24,26,-1,28,30,32,34,36,-1,-1,-1,38,40,42,44,46,-1,-1,48,50,52,54,56,-1,58,60,62,64,-1,66,-1,-1,68,70,72,74,-1,76,78,80,82,-1,-1,84,86,-1,-1,-1,-1,88,-1,-1,-1,-1,-1,-1,-1,-1,-1,-1,-1,-1,-1,-1,-1,-1,-1,-1,-1,-1,-1,-1,-1],"split_conditions":[-1.6038146E0,-1.5736994E-1,1.4632329E0,5.086516E-1,2.1810586E0,-1.6078086E0,2.4874774E-1,-8.086045E-1,-4.6022087E-2,-4.5088653E-2,4.247052E-2,-2.2769873E0,1.0673007E0,-1.1591361E-1,-4.5938E-2,-4.591663E-2,4.2060847E0,6.1948E4,-4.6352856E-2,1.7877798E0,-2.9856255E-2,1.6836491E-1,2.48091E0,-4.037737E-1,-4.8720937E-2,4.867766E-2,4.432981E-2,5.925907E-1,1.8653494E0,6.240321E-1,-1.511166E0,5.5364496E-1,-4.8920505E-2,-4.7347367E-2,1.41209E5,-1.8896455E0,-2.4745004E-1,-6.5666413E-1,2.4073243E-1,-4.5285024E-2,1.3425353E0,2.1412216E-1,1.2E-1,-1.5373507E0,-4.5377325E-2,3.7547934E-1,-4.9646936E-2,-4.999618E-2,-3.482919E-1,9.514446E-1,-1.6078086E0,-1.4746268E-1,-4.7468822E-2,-1.2635581E0,1.4088022E0,1.66816E5,2.5217086E-1,3.620323E-2,4.968964E-2,-1.3345135E0,5.617164E-1,4.367086E-2,-4.5823082E-2,-4.5685694E-2,4.739927E-2,8.25E0,-5.0056677E-2,4.112314E-2,5.07904E-2,4.4573653E-2,3.7960432E-2,4.5473102E-2,-5.236356E-2,3.0903732E-2,4.5470454E-2,3.0748457E-2,-4.5386143E-2,-4.39855E-2,3.8016825E-3,-4.5311883E-2,2.3293674E-2,-3.42967E-2,1.4347704E-2,3.383697E-2,-4.553775E-2,4.0927324E-2,-4.5826554E-2,4.4826236E-2,3.19071E-2],"split_indices":[10,3,17,12,17,17,8,11,0,0,0,12,7,22,0,0,7,0,0,22,26,24,17,12,0,0,0,17,5,5,11,25,0,0,0,10,26,21,5,0,21,18,29,11,0,10,0,0,10,9,17,1,0,11,26,0,18,0,0,8,18,0,0,0,0,29,0,0,0,0,0,0,0,0,0,0,0,0,0,0,0,0,0,0,0,0,0,0,0],"split_type":[0,0,0,0,0,0,0,0,0,0,0,0,0,0,0,0,0,0,0,0,0,0,0,0,0,0,0,0,0,0,0,0,0,0,0,0,0,0,0,0,0,0,0,0,0,0,0,0,0,0,0,0,0,0,0,0,0,0,0,0,0,0,0,0,0,0,0,0,0,0,0,0,0,0,0,0,0,0,0,0,0,0,0,0,0,0,0,0,0],"sum_hessian":[7.886327E4,3.3922848E4,4.494042E4,3.327196E4,6.5088965E2,4.158525E4,3.3551738E3,3.3060918E4,2.1104033E2,5.1075967E2,1.4012994E2,8.819053E2,4.0703344E4,2.814468E3,5.407058E2,6.716506E1,3.2993754E4,7.856902E2,9.6215096E1,3.5893027E4,4.810317E3,2.1515095E3,6.6295844E2,3.295855E4,3.5203903E1,2.732014E2,5.1248883E2,3.5562645E4,3.303836E2,3.0544517E3,1.7558655E3,2.0639675E3,8.754216E1,3.4726373E2,3.1569467E2,3.2182877E4,7.7567267E2,2.9391012E4,6.1716323E3,4.6439972E1,2.8394363E2,2.0451266E3,1.0093251E3,2.3329994E2,1.5225656E3,2.0105585E3,5.3408924E1,3.8082726E1,2.7761197E2,3.1747834E4,4.3504453E2,6.97865E2,7.7807655E1,9.153572E2,2.8475654E4,3.4896826E3,2.68195E3,1.4580746E2,1.3813618E2,7.9776245E2,1.247364E3,1.4075307E2,8.68572E2,8.687188E1,1.4642805E2,1.9765847E3,3.3973854E1,1.375598E2,1.4005217E2,3.1609588E4,1.3824487E2,3.8822278E2,4.682175E1,1.6476843E2,5.3309656E2,3.5502954E2,5.6032764E2,2.8222928E4,2.5272575E2,3.2861965E3,2.0348619E2,1.1353263E3,1.5466235E3,2.9978784E2,4.9797464E2,1.0811428E3,1.6622122E2,1.639726E3,3.3685867E2],"tree_param":{"num_deleted":"0","num_feature":"30","num_nodes":"89","size_leaf_vector":"1"}},{"base_weights":[3.076759E-2,1.3425232E0,-9.720799E-1,1.4099481E0,-1.0207589E0,-1.1825062E0,3.6495295E-1,-4.4703413E-2,1.4288043E0,4.577184E-2,-4.460185E-2,-1.281324E0,-3.82179E-1,-4.4934083E-2,7.76617E-1,2.8485262E-1,1.4522285E0,-1.357083E0,-4.566677E-1,-4.4739332E-2,6.355951E-2,9.5713514E-1,-4.550021E-2,1.422471E0,-4.4952143E-2,1.1963705E0,1.4613392E0,-1.3698133E0,5.508679E-1,-4.457355E-2,1.6691574E-1,7.31664E-1,-6.029103E-1,4.1988814E-1,1.4382006E0,4.5960825E-2,3.6538858E-2,4.4175424E-2,-4.567473E-2,1.4634578E0,1.2266065E0,-1.2089884E0,-4.4269394E-2,4.7650598E-2,-4.4926945E-2,6.42403E-1,-4.4836596E-2,1.0987242E0,-4.6523996E-2,2.416293E-1,-4.4899046E-2,8.396347E-1,-8.0173784E-1,7.964435E-1,1.4834399E0,1.461953E0,4.885222E-2,4.5879886E-2,2.878548E-2,-4.720062E-1,-1.3002485E0,9.233805E-1,-4.568998E-2,-4.609065E-2,1.2329683E0,-4.4910032E-2,1.1754225E0,-4.201167E-1,1.2478026E0,-4.751723E-2,3.9309707E-2,4.2687297E-2,-5.6365646E-2,3.297181E-2,1.5088814E0,4.3901224E-2,3.5692897E-2,-4.4537872E-2,2.2567408E-2,-4.1321058E-2,-5.562624E-3,3.334663E-2,-4.579446E-2,4.0267766E-2,-4.633877E-2,-4.49302E-2,4.590472E-2,-4.84629E-2,4.283877E-2,4.047151E-2,-5.1754512E-2,4.881829E-2,4.4025246E-2],"categories":[],"categories_nodes":[],"categories_segments":[],"categories_sizes":[],"default_left":[0,0,0,0,0,0,0,0,0,0,0,0,0,0,0,0,0,0,0,0,0,0,0,0,0,0,0,0,0,0,0,0,0,0,0,0,0,0,0,0,0,0,0,0,0,0,0,0,0,0,0,0,0,0,0,0,0,0,0,0,0,0,0,0,0,0,0,0,0,0,0,0,0,0,0,0,0,0,0,0,0,0,0,0,0,0,0,0,0,0,0,0,0],"id":15,"left_children":[1,3,5,7,9,11,13,-1,15,-1,-1,17,19,-1,21,23,25,27,29,-1,31,